<?xml version="1.0"?>
<opencv_storage>
<!-- Created using Computer Vision System Toolbox(tm) for MATLAB(R) -->
<!-- Version 9.0.0.341360 (R2016a) -->
<!-- Compatible with OpenCV 2.4 -->
<cascade>
  <stageType>BOOST</stageType>
  <featureType>HOG</featureType>
  <height>33</height>
  <width>32</width>
  <stageParams>
    <boostType>GAB</boostType>
    <minHitRate>9.9500000476837158e-01</minHitRate>
    <maxFalseAlarm>2.0000000298023224e-01</maxFalseAlarm>
    <weightTrimRate>9.4999999999999996e-01</weightTrimRate>
    <maxDepth>1</maxDepth>
    <maxWeakCount>100</maxWeakCount></stageParams>
  <featureParams>
    <maxCatCount>0</maxCatCount>
    <featSize>36</featSize></featureParams>
  <stageNum>15</stageNum>
  <stages>
    <!-- stage 0 -->
    <_>
      <maxWeakCount>11</maxWeakCount>
      <stageThreshold>-1.5087872743606567e+00</stageThreshold>
      <weakClassifiers>
        <_>
          <internalNodes>
            0 -1 30 1.7430031672120094e-02</internalNodes>
          <leafValues>
            6.1084526777267456e-01 -7.6107901334762573e-01</leafValues></_>
        <_>
          <internalNodes>
            0 -1 277 5.4205879569053650e-02</internalNodes>
          <leafValues>
            -5.0336337089538574e-01 7.5001263618469238e-01</leafValues></_>
        <_>
          <internalNodes>
            0 -1 377 1.8661744892597198e-02</internalNodes>
          <leafValues>
            7.0301389694213867e-01 -4.1230565309524536e-01</leafValues></_>
        <_>
          <internalNodes>
            0 -1 286 9.4072706997394562e-03</internalNodes>
          <leafValues>
            5.4598259925842285e-01 -3.9224386215209961e-01</leafValues></_>
        <_>
          <internalNodes>
            0 -1 87 1.8363073468208313e-02</internalNodes>
          <leafValues>
            4.2692345380783081e-01 -4.3524500727653503e-01</leafValues></_>
        <_>
          <internalNodes>
            0 -1 141 5.1560431718826294e-02</internalNodes>
          <leafValues>
            -2.6975744962692261e-01 7.3490661382675171e-01</leafValues></_>
        <_>
          <internalNodes>
            0 -1 91 2.7848796918988228e-02</internalNodes>
          <leafValues>
            3.9848905801773071e-01 -5.0288659334182739e-01</leafValues></_>
        <_>
          <internalNodes>
            0 -1 550 3.2429195940494537e-02</internalNodes>
          <leafValues>
            -2.7840349078178406e-01 5.4878151416778564e-01</leafValues></_>
        <_>
          <internalNodes>
            0 -1 54 1.4354549348354340e-02</internalNodes>
          <leafValues>
            4.0955153107643127e-01 -4.2188411951065063e-01</leafValues></_>
        <_>
          <internalNodes>
            0 -1 344 8.4276795387268066e-03</internalNodes>
          <leafValues>
            4.5794451236724854e-01 -3.0196300148963928e-01</leafValues></_>
        <_>
          <internalNodes>
            0 -1 261 1.9180573523044586e-02</internalNodes>
          <leafValues>
            -4.2300140857696533e-01 3.1683266162872314e-01</leafValues></_></weakClassifiers></_>
    <!-- stage 1 -->
    <_>
      <maxWeakCount>26</maxWeakCount>
      <stageThreshold>-1.5823746919631958e+00</stageThreshold>
      <weakClassifiers>
        <_>
          <internalNodes>
            0 -1 288 4.8660680651664734e-02</internalNodes>
          <leafValues>
            -6.7253106832504272e-01 4.8361581563949585e-01</leafValues></_>
        <_>
          <internalNodes>
            0 -1 23 1.2970201671123505e-02</internalNodes>
          <leafValues>
            4.8073559999465942e-01 -4.5435914397239685e-01</leafValues></_>
        <_>
          <internalNodes>
            0 -1 469 3.3830519765615463e-02</internalNodes>
          <leafValues>
            -3.4335771203041077e-01 4.4437837600708008e-01</leafValues></_>
        <_>
          <internalNodes>
            0 -1 302 4.8001818358898163e-03</internalNodes>
          <leafValues>
            5.4153770208358765e-01 -2.9548892378807068e-01</leafValues></_>
        <_>
          <internalNodes>
            0 -1 544 3.7306655198335648e-02</internalNodes>
          <leafValues>
            -2.7948558330535889e-01 3.8744303584098816e-01</leafValues></_>
        <_>
          <internalNodes>
            0 -1 106 4.9131987616419792e-03</internalNodes>
          <leafValues>
            5.0154620409011841e-01 -2.4167734384536743e-01</leafValues></_>
        <_>
          <internalNodes>
            0 -1 441 2.6360455900430679e-02</internalNodes>
          <leafValues>
            -2.7361100912094116e-01 4.4465982913970947e-01</leafValues></_>
        <_>
          <internalNodes>
            0 -1 459 1.9516799598932266e-02</internalNodes>
          <leafValues>
            -4.1423347592353821e-01 2.5505989789962769e-01</leafValues></_>
        <_>
          <internalNodes>
            0 -1 324 3.8286263588815928e-03</internalNodes>
          <leafValues>
            5.5946564674377441e-01 -1.8843549489974976e-01</leafValues></_>
        <_>
          <internalNodes>
            0 -1 575 4.6754172071814537e-03</internalNodes>
          <leafValues>
            -7.8854227066040039e-01 1.3011646270751953e-01</leafValues></_>
        <_>
          <internalNodes>
            0 -1 461 1.2154413387179375e-02</internalNodes>
          <leafValues>
            2.5751313567161560e-01 -3.4126377105712891e-01</leafValues></_>
        <_>
          <internalNodes>
            0 -1 88 3.5093672573566437e-02</internalNodes>
          <leafValues>
            -2.2901453077793121e-01 3.9330959320068359e-01</leafValues></_>
        <_>
          <internalNodes>
            0 -1 328 9.2051401734352112e-03</internalNodes>
          <leafValues>
            4.5291140675544739e-01 -1.8108959496021271e-01</leafValues></_>
        <_>
          <internalNodes>
            0 -1 518 8.4527935832738876e-03</internalNodes>
          <leafValues>
            -5.4588168859481812e-01 1.8856215476989746e-01</leafValues></_>
        <_>
          <internalNodes>
            0 -1 421 1.3701560907065868e-02</internalNodes>
          <leafValues>
            2.5980973243713379e-01 -4.0544211864471436e-01</leafValues></_>
        <_>
          <internalNodes>
            0 -1 365 4.1424851864576340e-02</internalNodes>
          <leafValues>
            -1.6476900875568390e-01 4.5357286930084229e-01</leafValues></_>
        <_>
          <internalNodes>
            0 -1 149 1.0484011843800545e-02</internalNodes>
          <leafValues>
            4.0105932950973511e-01 -2.0514136552810669e-01</leafValues></_>
        <_>
          <internalNodes>
            0 -1 172 6.9217383861541748e-02</internalNodes>
          <leafValues>
            -1.6761022806167603e-01 4.7272318601608276e-01</leafValues></_>
        <_>
          <internalNodes>
            0 -1 455 2.6291336864233017e-02</internalNodes>
          <leafValues>
            -2.3475676774978638e-01 3.0377164483070374e-01</leafValues></_>
        <_>
          <internalNodes>
            0 -1 77 3.9974134415388107e-03</internalNodes>
          <leafValues>
            5.6602627038955688e-01 -1.4560024440288544e-01</leafValues></_>
        <_>
          <internalNodes>
            0 -1 588 1.9038714468479156e-02</internalNodes>
          <leafValues>
            -2.7451011538505554e-01 2.7695152163505554e-01</leafValues></_>
        <_>
          <internalNodes>
            0 -1 360 1.2927005067467690e-02</internalNodes>
          <leafValues>
            3.7306118011474609e-01 -2.2440208494663239e-01</leafValues></_>
        <_>
          <internalNodes>
            0 -1 596 1.0091463103890419e-02</internalNodes>
          <leafValues>
            -4.3688651919364929e-01 1.5510001778602600e-01</leafValues></_>
        <_>
          <internalNodes>
            0 -1 53 1.1916367337107658e-02</internalNodes>
          <leafValues>
            2.7723771333694458e-01 -3.2518965005874634e-01</leafValues></_>
        <_>
          <internalNodes>
            0 -1 82 2.0610108971595764e-02</internalNodes>
          <leafValues>
            1.7794486880302429e-01 -4.0072551369667053e-01</leafValues></_>
        <_>
          <internalNodes>
            0 -1 568 5.1429620943963528e-03</internalNodes>
          <leafValues>
            -7.5833117961883545e-01 8.2275338470935822e-02</leafValues></_></weakClassifiers></_>
    <!-- stage 2 -->
    <_>
      <maxWeakCount>45</maxWeakCount>
      <stageThreshold>-1.5677862167358398e+00</stageThreshold>
      <weakClassifiers>
        <_>
          <internalNodes>
            0 -1 98 4.6265583485364914e-02</internalNodes>
          <leafValues>
            -6.7863893508911133e-01 4.7806772589683533e-01</leafValues></_>
        <_>
          <internalNodes>
            0 -1 510 4.1372004896402359e-02</internalNodes>
          <leafValues>
            -4.0370446443557739e-01 3.9460393786430359e-01</leafValues></_>
        <_>
          <internalNodes>
            0 -1 437 1.0681897401809692e-02</internalNodes>
          <leafValues>
            -6.8366968631744385e-01 1.8821711838245392e-01</leafValues></_>
        <_>
          <internalNodes>
            0 -1 409 2.5474909693002701e-02</internalNodes>
          <leafValues>
            -2.9991844296455383e-01 3.4456363320350647e-01</leafValues></_>
        <_>
          <internalNodes>
            0 -1 182 5.9349006041884422e-03</internalNodes>
          <leafValues>
            3.4850355982780457e-01 -2.6112905144691467e-01</leafValues></_>
        <_>
          <internalNodes>
            0 -1 378 4.1840970516204834e-02</internalNodes>
          <leafValues>
            1.1420098692178726e-01 -5.3477901220321655e-01</leafValues></_>
        <_>
          <internalNodes>
            0 -1 238 1.0718358680605888e-02</internalNodes>
          <leafValues>
            2.6306143403053284e-01 -2.8244897723197937e-01</leafValues></_>
        <_>
          <internalNodes>
            0 -1 549 3.4847944974899292e-02</internalNodes>
          <leafValues>
            -1.9716249406337738e-01 4.1908016800880432e-01</leafValues></_>
        <_>
          <internalNodes>
            0 -1 404 7.6393261551856995e-03</internalNodes>
          <leafValues>
            3.4598845243453979e-01 -1.9486470520496368e-01</leafValues></_>
        <_>
          <internalNodes>
            0 -1 5 6.4654776360839605e-04</internalNodes>
          <leafValues>
            -8.6668097972869873e-01 9.8770812153816223e-02</leafValues></_>
        <_>
          <internalNodes>
            0 -1 119 9.6008814871311188e-03</internalNodes>
          <leafValues>
            2.7595585584640503e-01 -2.4217787384986877e-01</leafValues></_>
        <_>
          <internalNodes>
            0 -1 119 9.2340394854545593e-02</internalNodes>
          <leafValues>
            -8.8257476687431335e-02 8.5490798950195313e-01</leafValues></_>
        <_>
          <internalNodes>
            0 -1 170 1.7362413927912712e-02</internalNodes>
          <leafValues>
            1.8002735078334808e-01 -3.8396337628364563e-01</leafValues></_>
        <_>
          <internalNodes>
            0 -1 493 6.5810251981019974e-03</internalNodes>
          <leafValues>
            -4.8460680246353149e-01 9.5709569752216339e-02</leafValues></_>
        <_>
          <internalNodes>
            0 -1 116 1.7281167209148407e-02</internalNodes>
          <leafValues>
            1.9301800429821014e-01 -2.6356306672096252e-01</leafValues></_>
        <_>
          <internalNodes>
            0 -1 86 3.1293861567974091e-02</internalNodes>
          <leafValues>
            1.0185696929693222e-01 -5.1761937141418457e-01</leafValues></_>
        <_>
          <internalNodes>
            0 -1 550 4.8543989658355713e-02</internalNodes>
          <leafValues>
            -1.2436821311712265e-01 4.1081708669662476e-01</leafValues></_>
        <_>
          <internalNodes>
            0 -1 46 1.8090715631842613e-02</internalNodes>
          <leafValues>
            -3.3171609044075012e-01 1.6359207034111023e-01</leafValues></_>
        <_>
          <internalNodes>
            0 -1 451 1.3651394844055176e-01</internalNodes>
          <leafValues>
            -5.8063011616468430e-02 9.2268550395965576e-01</leafValues></_>
        <_>
          <internalNodes>
            0 -1 585 2.6322145015001297e-02</internalNodes>
          <leafValues>
            1.2272561341524124e-01 -4.9706852436065674e-01</leafValues></_>
        <_>
          <internalNodes>
            0 -1 181 7.6030313968658447e-02</internalNodes>
          <leafValues>
            5.9094298630952835e-02 -7.2418040037155151e-01</leafValues></_>
        <_>
          <internalNodes>
            0 -1 66 7.7712098136544228e-03</internalNodes>
          <leafValues>
            2.2501952946186066e-01 -2.0326296985149384e-01</leafValues></_>
        <_>
          <internalNodes>
            0 -1 569 5.3119193762540817e-03</internalNodes>
          <leafValues>
            -5.6857955455780029e-01 8.1237837672233582e-02</leafValues></_>
        <_>
          <internalNodes>
            0 -1 47 6.9476865231990814e-02</internalNodes>
          <leafValues>
            -7.6730623841285706e-02 5.7264870405197144e-01</leafValues></_>
        <_>
          <internalNodes>
            0 -1 37 2.4003285914659500e-02</internalNodes>
          <leafValues>
            1.1639638990163803e-01 -3.7317356467247009e-01</leafValues></_>
        <_>
          <internalNodes>
            0 -1 158 7.1807384490966797e-02</internalNodes>
          <leafValues>
            7.6994687318801880e-02 -5.3680360317230225e-01</leafValues></_>
        <_>
          <internalNodes>
            0 -1 399 7.7704101800918579e-02</internalNodes>
          <leafValues>
            4.5474275946617126e-02 -7.5717467069625854e-01</leafValues></_>
        <_>
          <internalNodes>
            0 -1 414 1.6474271193146706e-02</internalNodes>
          <leafValues>
            1.2730105221271515e-01 -3.1351250410079956e-01</leafValues></_>
        <_>
          <internalNodes>
            0 -1 153 2.6236497797071934e-03</internalNodes>
          <leafValues>
            3.9771276712417603e-01 -9.3746006488800049e-02</leafValues></_>
        <_>
          <internalNodes>
            0 -1 588 6.5895272418856621e-03</internalNodes>
          <leafValues>
            -5.9926933050155640e-01 8.1199303269386292e-02</leafValues></_>
        <_>
          <internalNodes>
            0 -1 267 9.9674075841903687e-02</internalNodes>
          <leafValues>
            -1.0607944428920746e-01 4.4310563802719116e-01</leafValues></_>
        <_>
          <internalNodes>
            0 -1 603 3.7196099758148193e-02</internalNodes>
          <leafValues>
            -1.9537904858589172e-01 2.1060650050640106e-01</leafValues></_>
        <_>
          <internalNodes>
            0 -1 332 3.0505243688821793e-02</internalNodes>
          <leafValues>
            -1.5759894251823425e-01 2.5742706656455994e-01</leafValues></_>
        <_>
          <internalNodes>
            0 -1 302 2.2485926747322083e-03</internalNodes>
          <leafValues>
            3.4812664985656738e-01 -1.3719412684440613e-01</leafValues></_>
        <_>
          <internalNodes>
            0 -1 578 8.4522396326065063e-02</internalNodes>
          <leafValues>
            4.6889442950487137e-02 -8.5464441776275635e-01</leafValues></_>
        <_>
          <internalNodes>
            0 -1 348 1.3065511360764503e-02</internalNodes>
          <leafValues>
            -4.4261822104454041e-01 9.0288653969764709e-02</leafValues></_>
        <_>
          <internalNodes>
            0 -1 418 3.4123547375202179e-03</internalNodes>
          <leafValues>
            -5.9508359432220459e-01 5.6758910417556763e-02</leafValues></_>
        <_>
          <internalNodes>
            0 -1 357 2.2031781263649464e-03</internalNodes>
          <leafValues>
            4.4192543625831604e-01 -9.8293989896774292e-02</leafValues></_>
        <_>
          <internalNodes>
            0 -1 400 8.4524199366569519e-02</internalNodes>
          <leafValues>
            -4.0336839854717255e-02 7.6796346902847290e-01</leafValues></_>
        <_>
          <internalNodes>
            0 -1 563 6.4680497162044048e-03</internalNodes>
          <leafValues>
            -4.0964013338088989e-01 9.3544490635395050e-02</leafValues></_>
        <_>
          <internalNodes>
            0 -1 3 4.4292006641626358e-03</internalNodes>
          <leafValues>
            2.9020446538925171e-01 -1.5143954753875732e-01</leafValues></_>
        <_>
          <internalNodes>
            0 -1 241 7.5989969074726105e-02</internalNodes>
          <leafValues>
            -5.6411948055028915e-02 6.5750658512115479e-01</leafValues></_>
        <_>
          <internalNodes>
            0 -1 75 4.7256201505661011e-02</internalNodes>
          <leafValues>
            -1.0458252578973770e-01 3.6096206307411194e-01</leafValues></_>
        <_>
          <internalNodes>
            0 -1 324 8.4150880575180054e-03</internalNodes>
          <leafValues>
            2.6043012738227844e-01 -1.4805656671524048e-01</leafValues></_>
        <_>
          <internalNodes>
            0 -1 330 6.8622387945652008e-02</internalNodes>
          <leafValues>
            -1.1736111342906952e-01 3.9683169126510620e-01</leafValues></_></weakClassifiers></_>
    <!-- stage 3 -->
    <_>
      <maxWeakCount>61</maxWeakCount>
      <stageThreshold>-1.4224570989608765e+00</stageThreshold>
      <weakClassifiers>
        <_>
          <internalNodes>
            0 -1 141 6.3402876257896423e-02</internalNodes>
          <leafValues>
            -5.9474056959152222e-01 2.9425027966499329e-01</leafValues></_>
        <_>
          <internalNodes>
            0 -1 503 3.2817855477333069e-02</internalNodes>
          <leafValues>
            -4.0436643362045288e-01 3.1704178452491760e-01</leafValues></_>
        <_>
          <internalNodes>
            0 -1 349 3.2832264900207520e-02</internalNodes>
          <leafValues>
            -2.8396981954574585e-01 3.3547827601432800e-01</leafValues></_>
        <_>
          <internalNodes>
            0 -1 430 1.8808873370289803e-02</internalNodes>
          <leafValues>
            -4.0897166728973389e-01 2.3917564749717712e-01</leafValues></_>
        <_>
          <internalNodes>
            0 -1 303 4.5402501709759235e-03</internalNodes>
          <leafValues>
            3.0751836299896240e-01 -2.1046400070190430e-01</leafValues></_>
        <_>
          <internalNodes>
            0 -1 258 2.9185885563492775e-02</internalNodes>
          <leafValues>
            1.1274027079343796e-01 -5.3715491294860840e-01</leafValues></_>
        <_>
          <internalNodes>
            0 -1 50 2.2575486451387405e-02</internalNodes>
          <leafValues>
            1.4059902727603912e-01 -4.2671245336532593e-01</leafValues></_>
        <_>
          <internalNodes>
            0 -1 469 2.6194134727120399e-02</internalNodes>
          <leafValues>
            -2.4995107948780060e-01 2.2125485539436340e-01</leafValues></_>
        <_>
          <internalNodes>
            0 -1 284 2.7458104304969311e-03</internalNodes>
          <leafValues>
            3.8028940558433533e-01 -1.7320469021797180e-01</leafValues></_>
        <_>
          <internalNodes>
            0 -1 582 1.1699567548930645e-02</internalNodes>
          <leafValues>
            -4.5716777443885803e-01 1.1445271223783493e-01</leafValues></_>
        <_>
          <internalNodes>
            0 -1 63 1.0095085203647614e-01</internalNodes>
          <leafValues>
            -6.7471928894519806e-02 7.4501597881317139e-01</leafValues></_>
        <_>
          <internalNodes>
            0 -1 423 4.0071897208690643e-02</internalNodes>
          <leafValues>
            -1.6626495122909546e-01 3.0127340555191040e-01</leafValues></_>
        <_>
          <internalNodes>
            0 -1 519 3.0475329607725143e-02</internalNodes>
          <leafValues>
            -2.1267046034336090e-01 2.7697756886482239e-01</leafValues></_>
        <_>
          <internalNodes>
            0 -1 348 1.1602003872394562e-01</internalNodes>
          <leafValues>
            -1.1003451049327850e-01 4.9753075838088989e-01</leafValues></_>
        <_>
          <internalNodes>
            0 -1 168 2.5435460731387138e-02</internalNodes>
          <leafValues>
            1.5052936971187592e-01 -3.7047153711318970e-01</leafValues></_>
        <_>
          <internalNodes>
            0 -1 215 4.8002004623413086e-03</internalNodes>
          <leafValues>
            3.8555639982223511e-01 -1.2391896545886993e-01</leafValues></_>
        <_>
          <internalNodes>
            0 -1 291 8.5627967491745949e-03</internalNodes>
          <leafValues>
            -2.9980668425559998e-01 1.6011434793472290e-01</leafValues></_>
        <_>
          <internalNodes>
            0 -1 91 4.6915961429476738e-03</internalNodes>
          <leafValues>
            3.4713670611381531e-01 -1.4093665778636932e-01</leafValues></_>
        <_>
          <internalNodes>
            0 -1 193 4.9638628959655762e-02</internalNodes>
          <leafValues>
            -8.6181528866291046e-02 4.9763429164886475e-01</leafValues></_>
        <_>
          <internalNodes>
            0 -1 603 2.3538952693343163e-02</internalNodes>
          <leafValues>
            -2.9243651032447815e-01 1.7792774736881256e-01</leafValues></_>
        <_>
          <internalNodes>
            0 -1 53 1.8558356910943985e-02</internalNodes>
          <leafValues>
            1.2884071469306946e-01 -3.2211226224899292e-01</leafValues></_>
        <_>
          <internalNodes>
            0 -1 261 1.9154499750584364e-03</internalNodes>
          <leafValues>
            -7.4980115890502930e-01 5.8187212795019150e-02</leafValues></_>
        <_>
          <internalNodes>
            0 -1 568 9.9844671785831451e-03</internalNodes>
          <leafValues>
            -3.8694873452186584e-01 8.3488300442695618e-02</leafValues></_>
        <_>
          <internalNodes>
            0 -1 165 3.5990349948406219e-02</internalNodes>
          <leafValues>
            7.1146644651889801e-02 -5.3483152389526367e-01</leafValues></_>
        <_>
          <internalNodes>
            0 -1 115 4.2542107403278351e-02</internalNodes>
          <leafValues>
            6.9920234382152557e-02 -4.6831333637237549e-01</leafValues></_>
        <_>
          <internalNodes>
            0 -1 329 1.3524745590984821e-03</internalNodes>
          <leafValues>
            5.6600022315979004e-01 -6.2318444252014160e-02</leafValues></_>
        <_>
          <internalNodes>
            0 -1 484 6.3702361658215523e-03</internalNodes>
          <leafValues>
            -4.3745309114456177e-01 1.0938867181539536e-01</leafValues></_>
        <_>
          <internalNodes>
            0 -1 17 6.8947799503803253e-02</internalNodes>
          <leafValues>
            -9.6008732914924622e-02 3.9782482385635376e-01</leafValues></_>
        <_>
          <internalNodes>
            0 -1 133 6.8874239921569824e-02</internalNodes>
          <leafValues>
            -6.4336739480495453e-02 6.2774872779846191e-01</leafValues></_>
        <_>
          <internalNodes>
            0 -1 498 3.6862570792436600e-02</internalNodes>
          <leafValues>
            7.1132659912109375e-02 -6.2304711341857910e-01</leafValues></_>
        <_>
          <internalNodes>
            0 -1 199 2.1671294234693050e-03</internalNodes>
          <leafValues>
            4.4942447543144226e-01 -9.1440938413143158e-02</leafValues></_>
        <_>
          <internalNodes>
            0 -1 74 1.2119714170694351e-02</internalNodes>
          <leafValues>
            -2.9397672414779663e-01 1.3211017847061157e-01</leafValues></_>
        <_>
          <internalNodes>
            0 -1 304 8.0727323889732361e-02</internalNodes>
          <leafValues>
            4.1367337107658386e-02 -7.8854596614837646e-01</leafValues></_>
        <_>
          <internalNodes>
            0 -1 532 1.6728781163692474e-02</internalNodes>
          <leafValues>
            1.4727292954921722e-01 -2.0218360424041748e-01</leafValues></_>
        <_>
          <internalNodes>
            0 -1 389 1.4153844676911831e-02</internalNodes>
          <leafValues>
            1.3052359223365784e-01 -2.1362724900245667e-01</leafValues></_>
        <_>
          <internalNodes>
            0 -1 599 1.3498893938958645e-02</internalNodes>
          <leafValues>
            -3.4503075480461121e-01 1.0331857204437256e-01</leafValues></_>
        <_>
          <internalNodes>
            0 -1 544 1.6055199503898621e-01</internalNodes>
          <leafValues>
            3.6267239600419998e-02 -8.1487053632736206e-01</leafValues></_>
        <_>
          <internalNodes>
            0 -1 601 2.0320314913988113e-02</internalNodes>
          <leafValues>
            1.1552099138498306e-01 -2.4849402904510498e-01</leafValues></_>
        <_>
          <internalNodes>
            0 -1 282 9.1345310211181641e-03</internalNodes>
          <leafValues>
            -2.5702744722366333e-01 1.2418441474437714e-01</leafValues></_>
        <_>
          <internalNodes>
            0 -1 239 2.1722633391618729e-02</internalNodes>
          <leafValues>
            1.7068052291870117e-01 -2.1614255011081696e-01</leafValues></_>
        <_>
          <internalNodes>
            0 -1 536 4.3261449784040451e-02</internalNodes>
          <leafValues>
            -1.6704986989498138e-01 1.9261710345745087e-01</leafValues></_>
        <_>
          <internalNodes>
            0 -1 39 2.1562830079346895e-03</internalNodes>
          <leafValues>
            3.5526099801063538e-01 -9.4071470201015472e-02</leafValues></_>
        <_>
          <internalNodes>
            0 -1 592 4.8496806994080544e-03</internalNodes>
          <leafValues>
            -6.3227611780166626e-01 4.3648462742567062e-02</leafValues></_>
        <_>
          <internalNodes>
            0 -1 51 3.4125395119190216e-02</internalNodes>
          <leafValues>
            1.0120888799428940e-01 -2.8019562363624573e-01</leafValues></_>
        <_>
          <internalNodes>
            0 -1 252 1.9998546689748764e-02</internalNodes>
          <leafValues>
            1.1878961324691772e-01 -2.3250104486942291e-01</leafValues></_>
        <_>
          <internalNodes>
            0 -1 255 4.9062021076679230e-02</internalNodes>
          <leafValues>
            -1.1214819550514221e-01 2.7514281868934631e-01</leafValues></_>
        <_>
          <internalNodes>
            0 -1 228 1.5608888864517212e-01</internalNodes>
          <leafValues>
            -4.0705326944589615e-02 8.0995976924896240e-01</leafValues></_>
        <_>
          <internalNodes>
            0 -1 37 2.6789395138621330e-02</internalNodes>
          <leafValues>
            9.3192070722579956e-02 -3.7542966008186340e-01</leafValues></_>
        <_>
          <internalNodes>
            0 -1 482 2.4721738882362843e-03</internalNodes>
          <leafValues>
            -5.7317429780960083e-01 4.3704695999622345e-02</leafValues></_>
        <_>
          <internalNodes>
            0 -1 200 1.3495951425284147e-03</internalNodes>
          <leafValues>
            3.6792650818824768e-01 -8.6217656731605530e-02</leafValues></_>
        <_>
          <internalNodes>
            0 -1 492 6.9200289435684681e-03</internalNodes>
          <leafValues>
            -3.7748143076896667e-01 7.7394254505634308e-02</leafValues></_>
        <_>
          <internalNodes>
            0 -1 593 3.2508950680494308e-02</internalNodes>
          <leafValues>
            -1.6009922325611115e-01 1.7986130714416504e-01</leafValues></_>
        <_>
          <internalNodes>
            0 -1 322 3.6174547858536243e-03</internalNodes>
          <leafValues>
            4.4689252972602844e-01 -6.5163835883140564e-02</leafValues></_>
        <_>
          <internalNodes>
            0 -1 179 8.5253110155463219e-03</internalNodes>
          <leafValues>
            -3.1159386038780212e-01 8.9682906866073608e-02</leafValues></_>
        <_>
          <internalNodes>
            0 -1 369 6.8793566897511482e-03</internalNodes>
          <leafValues>
            1.6992028057575226e-01 -1.5881212055683136e-01</leafValues></_>
        <_>
          <internalNodes>
            0 -1 567 6.9121774286031723e-03</internalNodes>
          <leafValues>
            -3.8034150004386902e-01 6.7570291459560394e-02</leafValues></_>
        <_>
          <internalNodes>
            0 -1 77 2.0071102771908045e-03</internalNodes>
          <leafValues>
            3.6787652969360352e-01 -7.4721507728099823e-02</leafValues></_>
        <_>
          <internalNodes>
            0 -1 119 1.8454130738973618e-02</internalNodes>
          <leafValues>
            1.0718277841806412e-01 -2.2006271779537201e-01</leafValues></_>
        <_>
          <internalNodes>
            0 -1 596 1.0217797011137009e-02</internalNodes>
          <leafValues>
            -3.3188807964324951e-01 8.4321819245815277e-02</leafValues></_>
        <_>
          <internalNodes>
            0 -1 314 9.8519003950059414e-04</internalNodes>
          <leafValues>
            4.1569152474403381e-01 -6.5031066536903381e-02</leafValues></_>
        <_>
          <internalNodes>
            0 -1 583 1.8921151058748364e-03</internalNodes>
          <leafValues>
            -6.9696342945098877e-01 3.6997742950916290e-02</leafValues></_></weakClassifiers></_>
    <!-- stage 4 -->
    <_>
      <maxWeakCount>100</maxWeakCount>
      <stageThreshold>-1.4183415174484253e+00</stageThreshold>
      <weakClassifiers>
        <_>
          <internalNodes>
            0 -1 277 6.9085136055946350e-02</internalNodes>
          <leafValues>
            -5.6189578771591187e-01 2.0758928358554840e-01</leafValues></_>
        <_>
          <internalNodes>
            0 -1 325 5.7570204138755798e-02</internalNodes>
          <leafValues>
            -2.9439729452133179e-01 3.6194553971290588e-01</leafValues></_>
        <_>
          <internalNodes>
            0 -1 544 5.3070686757564545e-02</internalNodes>
          <leafValues>
            -2.1718680858612061e-01 3.4408450126647949e-01</leafValues></_>
        <_>
          <internalNodes>
            0 -1 21 8.1240786239504814e-03</internalNodes>
          <leafValues>
            2.5787225365638733e-01 -2.6546028256416321e-01</leafValues></_>
        <_>
          <internalNodes>
            0 -1 441 3.1579412519931793e-02</internalNodes>
          <leafValues>
            -2.3087936639785767e-01 2.1872909367084503e-01</leafValues></_>
        <_>
          <internalNodes>
            0 -1 384 3.2214682549238205e-02</internalNodes>
          <leafValues>
            1.1927295476198196e-01 -5.0278878211975098e-01</leafValues></_>
        <_>
          <internalNodes>
            0 -1 477 4.0503107011318207e-02</internalNodes>
          <leafValues>
            -1.6416662931442261e-01 2.9584491252899170e-01</leafValues></_>
        <_>
          <internalNodes>
            0 -1 31 1.5602542087435722e-02</internalNodes>
          <leafValues>
            1.3001190125942230e-01 -3.6463961005210876e-01</leafValues></_>
        <_>
          <internalNodes>
            0 -1 38 1.3172548264265060e-02</internalNodes>
          <leafValues>
            2.1991004049777985e-01 -1.8241930007934570e-01</leafValues></_>
        <_>
          <internalNodes>
            0 -1 250 1.0064378380775452e-02</internalNodes>
          <leafValues>
            1.5982872247695923e-01 -2.1193738281726837e-01</leafValues></_>
        <_>
          <internalNodes>
            0 -1 429 3.8383419159799814e-03</internalNodes>
          <leafValues>
            -6.1171036958694458e-01 8.7881505489349365e-02</leafValues></_>
        <_>
          <internalNodes>
            0 -1 157 2.5724424049258232e-02</internalNodes>
          <leafValues>
            1.0512474179267883e-01 -2.8833597898483276e-01</leafValues></_>
        <_>
          <internalNodes>
            0 -1 585 1.8086388707160950e-02</internalNodes>
          <leafValues>
            1.1280443519353867e-01 -2.8509339690208435e-01</leafValues></_>
        <_>
          <internalNodes>
            0 -1 261 1.1143783107399940e-02</internalNodes>
          <leafValues>
            -3.7144687771797180e-01 8.8813625276088715e-02</leafValues></_>
        <_>
          <internalNodes>
            0 -1 88 7.1164183318614960e-02</internalNodes>
          <leafValues>
            -1.0823544859886169e-01 2.9482477903366089e-01</leafValues></_>
        <_>
          <internalNodes>
            0 -1 228 1.4017829298973083e-01</internalNodes>
          <leafValues>
            -5.5334143340587616e-02 6.8581658601760864e-01</leafValues></_>
        <_>
          <internalNodes>
            0 -1 119 1.0945601761341095e-01</internalNodes>
          <leafValues>
            -3.3248063176870346e-02 7.2653645277023315e-01</leafValues></_>
        <_>
          <internalNodes>
            0 -1 501 9.9091604351997375e-03</internalNodes>
          <leafValues>
            -3.7594136595726013e-01 1.0102763772010803e-01</leafValues></_>
        <_>
          <internalNodes>
            0 -1 377 1.0728476336225867e-03</internalNodes>
          <leafValues>
            5.0430285930633545e-01 -6.1367940157651901e-02</leafValues></_>
        <_>
          <internalNodes>
            0 -1 569 9.1812945902347565e-03</internalNodes>
          <leafValues>
            -3.6889004707336426e-01 7.5059369206428528e-02</leafValues></_>
        <_>
          <internalNodes>
            0 -1 561 1.8627654761075974e-02</internalNodes>
          <leafValues>
            1.1775645613670349e-01 -2.2791363298892975e-01</leafValues></_>
        <_>
          <internalNodes>
            0 -1 218 7.4877589941024780e-02</internalNodes>
          <leafValues>
            -7.0333264768123627e-02 4.5063531398773193e-01</leafValues></_>
        <_>
          <internalNodes>
            0 -1 564 9.0852472931146622e-03</internalNodes>
          <leafValues>
            -2.9070854187011719e-01 9.0567067265510559e-02</leafValues></_>
        <_>
          <internalNodes>
            0 -1 269 2.4975638836622238e-02</internalNodes>
          <leafValues>
            9.1690883040428162e-02 -2.8587144613265991e-01</leafValues></_>
        <_>
          <internalNodes>
            0 -1 91 4.8319131135940552e-02</internalNodes>
          <leafValues>
            4.3338216841220856e-02 -5.2716976404190063e-01</leafValues></_>
        <_>
          <internalNodes>
            0 -1 7 2.5255728513002396e-02</internalNodes>
          <leafValues>
            8.2323744893074036e-02 -2.9247480630874634e-01</leafValues></_>
        <_>
          <internalNodes>
            0 -1 184 9.5151849091053009e-03</internalNodes>
          <leafValues>
            1.6789972782135010e-01 -1.7561545968055725e-01</leafValues></_>
        <_>
          <internalNodes>
            0 -1 517 9.1111443936824799e-02</internalNodes>
          <leafValues>
            4.3467521667480469e-02 -5.9658247232437134e-01</leafValues></_>
        <_>
          <internalNodes>
            0 -1 24 8.0158501863479614e-02</internalNodes>
          <leafValues>
            3.0534725636243820e-02 -6.4283102750778198e-01</leafValues></_>
        <_>
          <internalNodes>
            0 -1 259 3.9807155728340149e-02</internalNodes>
          <leafValues>
            3.8034398108720779e-02 -5.6641477346420288e-01</leafValues></_>
        <_>
          <internalNodes>
            0 -1 128 1.1848155409097672e-03</internalNodes>
          <leafValues>
            3.0845913290977478e-01 -7.3347054421901703e-02</leafValues></_>
        <_>
          <internalNodes>
            0 -1 499 1.8007375765591860e-03</internalNodes>
          <leafValues>
            -6.6689819097518921e-01 4.2751297354698181e-02</leafValues></_>
        <_>
          <internalNodes>
            0 -1 376 1.0478137060999870e-02</internalNodes>
          <leafValues>
            1.3292333483695984e-01 -1.7056114971637726e-01</leafValues></_>
        <_>
          <internalNodes>
            0 -1 525 2.7034506201744080e-03</internalNodes>
          <leafValues>
            -4.4538009166717529e-01 5.2572805434465408e-02</leafValues></_>
        <_>
          <internalNodes>
            0 -1 335 1.6178118064999580e-02</internalNodes>
          <leafValues>
            1.1732658743858337e-01 -2.0703969895839691e-01</leafValues></_>
        <_>
          <internalNodes>
            0 -1 589 1.8253389745950699e-02</internalNodes>
          <leafValues>
            -1.9361175596714020e-01 1.0624425113201141e-01</leafValues></_>
        <_>
          <internalNodes>
            0 -1 188 1.5560744330286980e-02</internalNodes>
          <leafValues>
            1.4618095755577087e-01 -2.1126316487789154e-01</leafValues></_>
        <_>
          <internalNodes>
            0 -1 141 3.6070004105567932e-02</internalNodes>
          <leafValues>
            -1.4037995040416718e-01 1.7742033302783966e-01</leafValues></_>
        <_>
          <internalNodes>
            0 -1 69 3.3188089728355408e-02</internalNodes>
          <leafValues>
            9.9165096879005432e-02 -3.0841705203056335e-01</leafValues></_>
        <_>
          <internalNodes>
            0 -1 41 1.8054056912660599e-02</internalNodes>
          <leafValues>
            1.0928957164287567e-01 -2.0483966171741486e-01</leafValues></_>
        <_>
          <internalNodes>
            0 -1 427 5.3813727572560310e-03</internalNodes>
          <leafValues>
            -3.6802354454994202e-01 7.6360478997230530e-02</leafValues></_>
        <_>
          <internalNodes>
            0 -1 495 4.6286523342132568e-02</internalNodes>
          <leafValues>
            3.4228850156068802e-02 -5.1546418666839600e-01</leafValues></_>
        <_>
          <internalNodes>
            0 -1 201 1.1815428733825684e-03</internalNodes>
          <leafValues>
            3.2376965880393982e-01 -7.4975319206714630e-02</leafValues></_>
        <_>
          <internalNodes>
            0 -1 363 5.1535651087760925e-02</internalNodes>
          <leafValues>
            6.6954188048839569e-02 -3.0774793028831482e-01</leafValues></_>
        <_>
          <internalNodes>
            0 -1 426 2.1387878805398941e-02</internalNodes>
          <leafValues>
            8.2530356943607330e-02 -2.5825351476669312e-01</leafValues></_>
        <_>
          <internalNodes>
            0 -1 315 7.1311728097498417e-03</internalNodes>
          <leafValues>
            -2.6648738980293274e-01 8.5311375558376312e-02</leafValues></_>
        <_>
          <internalNodes>
            0 -1 12 1.4521354436874390e-01</internalNodes>
          <leafValues>
            -2.5721414014697075e-02 8.3620637655258179e-01</leafValues></_>
        <_>
          <internalNodes>
            0 -1 339 3.9824109524488449e-02</internalNodes>
          <leafValues>
            -1.1030752956867218e-01 1.8594716489315033e-01</leafValues></_>
        <_>
          <internalNodes>
            0 -1 144 4.2915679514408112e-03</internalNodes>
          <leafValues>
            3.3424594998359680e-01 -7.6609693467617035e-02</leafValues></_>
        <_>
          <internalNodes>
            0 -1 515 2.6668936014175415e-02</internalNodes>
          <leafValues>
            6.2781609594821930e-02 -3.5470369458198547e-01</leafValues></_>
        <_>
          <internalNodes>
            0 -1 104 6.8360287696123123e-03</internalNodes>
          <leafValues>
            -2.6681023836135864e-01 7.2734348475933075e-02</leafValues></_>
        <_>
          <internalNodes>
            0 -1 394 8.5447393357753754e-03</internalNodes>
          <leafValues>
            -2.5161048769950867e-01 7.2607778012752533e-02</leafValues></_>
        <_>
          <internalNodes>
            0 -1 317 1.6050195554271340e-03</internalNodes>
          <leafValues>
            3.6861479282379150e-01 -7.0753172039985657e-02</leafValues></_>
        <_>
          <internalNodes>
            0 -1 153 1.0225519537925720e-01</internalNodes>
          <leafValues>
            -5.2435882389545441e-02 3.7936547398567200e-01</leafValues></_>
        <_>
          <internalNodes>
            0 -1 417 2.6574225630611181e-03</internalNodes>
          <leafValues>
            -5.7652312517166138e-01 3.8002766668796539e-02</leafValues></_>
        <_>
          <internalNodes>
            0 -1 320 3.8834246806800365e-03</internalNodes>
          <leafValues>
            2.1782152354717255e-01 -1.0022581368684769e-01</leafValues></_>
        <_>
          <internalNodes>
            0 -1 75 5.9839252382516861e-02</internalNodes>
          <leafValues>
            -7.8898184001445770e-02 2.7445793151855469e-01</leafValues></_>
        <_>
          <internalNodes>
            0 -1 225 4.4022336602210999e-02</internalNodes>
          <leafValues>
            -6.4577542245388031e-02 3.0334705114364624e-01</leafValues></_>
        <_>
          <internalNodes>
            0 -1 345 1.9521761685609818e-02</internalNodes>
          <leafValues>
            1.3456185162067413e-01 -1.4584319293498993e-01</leafValues></_>
        <_>
          <internalNodes>
            0 -1 485 2.6261467486619949e-02</internalNodes>
          <leafValues>
            -1.3909015059471130e-01 1.3807442784309387e-01</leafValues></_>
        <_>
          <internalNodes>
            0 -1 78 5.8198846876621246e-02</internalNodes>
          <leafValues>
            3.4915752708911896e-02 -5.8603698015213013e-01</leafValues></_>
        <_>
          <internalNodes>
            0 -1 183 1.7562432214617729e-02</internalNodes>
          <leafValues>
            7.2953872382640839e-02 -2.2997477650642395e-01</leafValues></_>
        <_>
          <internalNodes>
            0 -1 54 8.0262213945388794e-02</internalNodes>
          <leafValues>
            -4.4027559459209442e-02 4.8644000291824341e-01</leafValues></_>
        <_>
          <internalNodes>
            0 -1 178 2.1024782210588455e-02</internalNodes>
          <leafValues>
            -1.4928647875785828e-01 1.2081734836101532e-01</leafValues></_>
        <_>
          <internalNodes>
            0 -1 572 9.9012784659862518e-02</internalNodes>
          <leafValues>
            -2.6478286832571030e-02 7.9797136783599854e-01</leafValues></_>
        <_>
          <internalNodes>
            0 -1 568 4.0691075846552849e-03</internalNodes>
          <leafValues>
            -5.6832122802734375e-01 3.8988698273897171e-02</leafValues></_>
        <_>
          <internalNodes>
            0 -1 26 1.6265095770359039e-01</internalNodes>
          <leafValues>
            -5.1967378705739975e-02 4.0341705083847046e-01</leafValues></_>
        <_>
          <internalNodes>
            0 -1 444 1.2773896753787994e-01</internalNodes>
          <leafValues>
            -2.9745785519480705e-02 5.8373898267745972e-01</leafValues></_>
        <_>
          <internalNodes>
            0 -1 321 2.9647253453731537e-02</internalNodes>
          <leafValues>
            9.5415778458118439e-02 -2.2698807716369629e-01</leafValues></_>
        <_>
          <internalNodes>
            0 -1 257 1.8589528277516365e-02</internalNodes>
          <leafValues>
            8.6510270833969116e-02 -2.0530191063880920e-01</leafValues></_>
        <_>
          <internalNodes>
            0 -1 504 2.1353442571125925e-04</internalNodes>
          <leafValues>
            -8.1877636909484863e-01 2.0572770386934280e-02</leafValues></_>
        <_>
          <internalNodes>
            0 -1 118 6.2000207602977753e-02</internalNodes>
          <leafValues>
            -4.6306554228067398e-02 4.2710992693901062e-01</leafValues></_>
        <_>
          <internalNodes>
            0 -1 190 3.2321181148290634e-02</internalNodes>
          <leafValues>
            -9.2807404696941376e-02 2.0391727983951569e-01</leafValues></_>
        <_>
          <internalNodes>
            0 -1 348 2.0039334893226624e-01</internalNodes>
          <leafValues>
            -2.8128087520599365e-02 5.8279275894165039e-01</leafValues></_>
        <_>
          <internalNodes>
            0 -1 2 8.8348567485809326e-02</internalNodes>
          <leafValues>
            3.8091387599706650e-02 -5.2121448516845703e-01</leafValues></_>
        <_>
          <internalNodes>
            0 -1 337 6.7669143900275230e-03</internalNodes>
          <leafValues>
            -2.5192800164222717e-01 6.1326764523983002e-02</leafValues></_>
        <_>
          <internalNodes>
            0 -1 286 5.6523783132433891e-04</internalNodes>
          <leafValues>
            3.1665456295013428e-01 -5.6680481880903244e-02</leafValues></_>
        <_>
          <internalNodes>
            0 -1 187 4.4165566563606262e-02</internalNodes>
          <leafValues>
            4.4868905097246170e-02 -3.6463207006454468e-01</leafValues></_>
        <_>
          <internalNodes>
            0 -1 502 4.6869385987520218e-03</internalNodes>
          <leafValues>
            -4.0518090128898621e-01 4.4574618339538574e-02</leafValues></_>
        <_>
          <internalNodes>
            0 -1 202 1.5684345364570618e-01</internalNodes>
          <leafValues>
            -2.8406308963894844e-02 7.4793624877929688e-01</leafValues></_>
        <_>
          <internalNodes>
            0 -1 109 5.7039670646190643e-03</internalNodes>
          <leafValues>
            1.9584468007087708e-01 -8.8153742253780365e-02</leafValues></_>
        <_>
          <internalNodes>
            0 -1 595 2.7325324714183807e-02</internalNodes>
          <leafValues>
            -1.2714396417140961e-01 1.4030608534812927e-01</leafValues></_>
        <_>
          <internalNodes>
            0 -1 571 3.6857277154922485e-02</internalNodes>
          <leafValues>
            -1.0595643520355225e-01 1.9070689380168915e-01</leafValues></_>
        <_>
          <internalNodes>
            0 -1 399 4.7013450413942337e-02</internalNodes>
          <leafValues>
            5.5959690362215042e-02 -3.6698153614997864e-01</leafValues></_>
        <_>
          <internalNodes>
            0 -1 434 8.2763284444808960e-03</internalNodes>
          <leafValues>
            -2.5821247696876526e-01 5.8750379830598831e-02</leafValues></_>
        <_>
          <internalNodes>
            0 -1 133 1.6945406794548035e-02</internalNodes>
          <leafValues>
            1.2231048941612244e-01 -1.5113221108913422e-01</leafValues></_>
        <_>
          <internalNodes>
            0 -1 311 2.4903099983930588e-02</internalNodes>
          <leafValues>
            -1.3946551084518433e-01 1.2953194975852966e-01</leafValues></_>
        <_>
          <internalNodes>
            0 -1 0 3.4819647669792175e-02</internalNodes>
          <leafValues>
            7.5222440063953400e-02 -2.7694097161293030e-01</leafValues></_>
        <_>
          <internalNodes>
            0 -1 90 3.2371453940868378e-02</internalNodes>
          <leafValues>
            6.6673792898654938e-02 -2.6050984859466553e-01</leafValues></_>
        <_>
          <internalNodes>
            0 -1 101 9.7119313431903720e-04</internalNodes>
          <leafValues>
            2.9905954003334045e-01 -6.2638729810714722e-02</leafValues></_>
        <_>
          <internalNodes>
            0 -1 45 4.8162741586565971e-03</internalNodes>
          <leafValues>
            -3.0189368128776550e-01 6.7361243069171906e-02</leafValues></_>
        <_>
          <internalNodes>
            0 -1 432 4.9327701330184937e-02</internalNodes>
          <leafValues>
            -8.7527647614479065e-02 2.0332634449005127e-01</leafValues></_>
        <_>
          <internalNodes>
            0 -1 525 8.4981352090835571e-02</internalNodes>
          <leafValues>
            -3.0689496546983719e-02 5.5901968479156494e-01</leafValues></_>
        <_>
          <internalNodes>
            0 -1 552 7.2751075029373169e-02</internalNodes>
          <leafValues>
            4.0555976331233978e-02 -4.6205073595046997e-01</leafValues></_>
        <_>
          <internalNodes>
            0 -1 594 6.8687155842781067e-02</internalNodes>
          <leafValues>
            1.6510389745235443e-02 -8.0564469099044800e-01</leafValues></_>
        <_>
          <internalNodes>
            0 -1 16 7.5091190636157990e-02</internalNodes>
          <leafValues>
            -3.8910295814275742e-02 4.4723734259605408e-01</leafValues></_>
        <_>
          <internalNodes>
            0 -1 98 4.8728428781032562e-02</internalNodes>
          <leafValues>
            -9.8109371960163116e-02 1.7488902807235718e-01</leafValues></_>
        <_>
          <internalNodes>
            0 -1 204 1.2250602990388870e-01</internalNodes>
          <leafValues>
            3.0106104910373688e-02 -5.1682120561599731e-01</leafValues></_>
        <_>
          <internalNodes>
            0 -1 319 5.3883269429206848e-03</internalNodes>
          <leafValues>
            2.0161332190036774e-01 -8.1468373537063599e-02</leafValues></_>
        <_>
          <internalNodes>
            0 -1 132 6.2014885246753693e-02</internalNodes>
          <leafValues>
            -2.5043647736310959e-02 6.4357680082321167e-01</leafValues></_></weakClassifiers></_>
    <!-- stage 5 -->
    <_>
      <maxWeakCount>100</maxWeakCount>
      <stageThreshold>-1.5531049966812134e+00</stageThreshold>
      <weakClassifiers>
        <_>
          <internalNodes>
            0 -1 519 4.1794970631599426e-02</internalNodes>
          <leafValues>
            -6.4582151174545288e-01 1.0377733409404755e-01</leafValues></_>
        <_>
          <internalNodes>
            0 -1 141 4.1786693036556244e-02</internalNodes>
          <leafValues>
            -3.0901578068733215e-01 1.9662253558635712e-01</leafValues></_>
        <_>
          <internalNodes>
            0 -1 302 2.3272642865777016e-03</internalNodes>
          <leafValues>
            2.8473171591758728e-01 -1.5389819443225861e-01</leafValues></_>
        <_>
          <internalNodes>
            0 -1 9 4.1227094829082489e-02</internalNodes>
          <leafValues>
            -1.7004306614398956e-01 2.5360301136970520e-01</leafValues></_>
        <_>
          <internalNodes>
            0 -1 292 1.1085325852036476e-02</internalNodes>
          <leafValues>
            -2.6882427930831909e-01 1.4794881641864777e-01</leafValues></_>
        <_>
          <internalNodes>
            0 -1 324 2.0298808813095093e-03</internalNodes>
          <leafValues>
            3.6207103729248047e-01 -9.4977714121341705e-02</leafValues></_>
        <_>
          <internalNodes>
            0 -1 539 5.4346237331628799e-02</internalNodes>
          <leafValues>
            -1.3218750059604645e-01 3.2310929894447327e-01</leafValues></_>
        <_>
          <internalNodes>
            0 -1 469 3.3736191689968109e-02</internalNodes>
          <leafValues>
            -2.0882432162761688e-01 1.7508883774280548e-01</leafValues></_>
        <_>
          <internalNodes>
            0 -1 84 2.0771278068423271e-02</internalNodes>
          <leafValues>
            -2.8984683752059937e-01 9.6636548638343811e-02</leafValues></_>
        <_>
          <internalNodes>
            0 -1 171 1.4202859252691269e-02</internalNodes>
          <leafValues>
            1.5816605091094971e-01 -2.3996703326702118e-01</leafValues></_>
        <_>
          <internalNodes>
            0 -1 124 1.2289497256278992e-01</internalNodes>
          <leafValues>
            -5.1010485738515854e-02 6.7935228347778320e-01</leafValues></_>
        <_>
          <internalNodes>
            0 -1 597 7.7728535979986191e-03</internalNodes>
          <leafValues>
            -4.9559369683265686e-01 6.3653647899627686e-02</leafValues></_>
        <_>
          <internalNodes>
            0 -1 142 2.0379696041345596e-02</internalNodes>
          <leafValues>
            1.6670219600200653e-01 -1.8440511822700500e-01</leafValues></_>
        <_>
          <internalNodes>
            0 -1 352 3.2864443957805634e-02</internalNodes>
          <leafValues>
            8.0658324062824249e-02 -2.6743951439857483e-01</leafValues></_>
        <_>
          <internalNodes>
            0 -1 305 6.3659343868494034e-03</internalNodes>
          <leafValues>
            -3.1198462843894958e-01 6.0858041048049927e-02</leafValues></_>
        <_>
          <internalNodes>
            0 -1 275 1.6684781759977341e-02</internalNodes>
          <leafValues>
            1.3762855529785156e-01 -1.6553315520286560e-01</leafValues></_>
        <_>
          <internalNodes>
            0 -1 187 2.1847495809197426e-02</internalNodes>
          <leafValues>
            1.0665309429168701e-01 -2.4521976709365845e-01</leafValues></_>
        <_>
          <internalNodes>
            0 -1 594 4.8398934304714203e-02</internalNodes>
          <leafValues>
            3.4622814506292343e-02 -4.6854597330093384e-01</leafValues></_>
        <_>
          <internalNodes>
            0 -1 587 1.7223775386810303e-02</internalNodes>
          <leafValues>
            -2.6048007607460022e-01 6.4953595399856567e-02</leafValues></_>
        <_>
          <internalNodes>
            0 -1 287 2.9656089842319489e-02</internalNodes>
          <leafValues>
            1.1218979209661484e-01 -1.7531323432922363e-01</leafValues></_>
        <_>
          <internalNodes>
            0 -1 480 9.0451631695032120e-03</internalNodes>
          <leafValues>
            1.1784344166517258e-01 -1.4442788064479828e-01</leafValues></_>
        <_>
          <internalNodes>
            0 -1 481 4.5046466402709484e-04</internalNodes>
          <leafValues>
            -6.0229742527008057e-01 3.9257127791643143e-02</leafValues></_>
        <_>
          <internalNodes>
            0 -1 568 5.4798712953925133e-03</internalNodes>
          <leafValues>
            -5.2458149194717407e-01 3.1444534659385681e-02</leafValues></_>
        <_>
          <internalNodes>
            0 -1 233 2.0971290767192841e-02</internalNodes>
          <leafValues>
            9.9868893623352051e-02 -1.9693872332572937e-01</leafValues></_>
        <_>
          <internalNodes>
            0 -1 368 6.1873748898506165e-02</internalNodes>
          <leafValues>
            -4.2494609951972961e-02 4.7609230875968933e-01</leafValues></_>
        <_>
          <internalNodes>
            0 -1 290 1.0772069217637181e-03</internalNodes>
          <leafValues>
            3.8336902856826782e-01 -4.4664088636636734e-02</leafValues></_>
        <_>
          <internalNodes>
            0 -1 136 3.8961276412010193e-02</internalNodes>
          <leafValues>
            -1.0273753851652145e-01 2.1329113841056824e-01</leafValues></_>
        <_>
          <internalNodes>
            0 -1 199 1.1736941523849964e-02</internalNodes>
          <leafValues>
            1.6001279652118683e-01 -1.2925767898559570e-01</leafValues></_>
        <_>
          <internalNodes>
            0 -1 91 5.3411066532135010e-02</internalNodes>
          <leafValues>
            3.5617738962173462e-02 -6.4926093816757202e-01</leafValues></_>
        <_>
          <internalNodes>
            0 -1 74 1.1964565142989159e-02</internalNodes>
          <leafValues>
            -2.4201458692550659e-01 8.9603208005428314e-02</leafValues></_>
        <_>
          <internalNodes>
            0 -1 302 7.0143491029739380e-02</internalNodes>
          <leafValues>
            -4.5887149870395660e-02 4.8282501101493835e-01</leafValues></_>
        <_>
          <internalNodes>
            0 -1 573 3.6253504455089569e-02</internalNodes>
          <leafValues>
            4.3193183839321136e-02 -4.3751955032348633e-01</leafValues></_>
        <_>
          <internalNodes>
            0 -1 356 6.8710315972566605e-03</internalNodes>
          <leafValues>
            -2.6227211952209473e-01 7.1923561394214630e-02</leafValues></_>
        <_>
          <internalNodes>
            0 -1 191 8.3183730021119118e-04</internalNodes>
          <leafValues>
            3.4143608808517456e-01 -5.4358530789613724e-02</leafValues></_>
        <_>
          <internalNodes>
            0 -1 582 9.0432018041610718e-03</internalNodes>
          <leafValues>
            -3.5979902744293213e-01 5.7733763009309769e-02</leafValues></_>
        <_>
          <internalNodes>
            0 -1 122 2.4468847550451756e-03</internalNodes>
          <leafValues>
            2.4190494418144226e-01 -7.4316650629043579e-02</leafValues></_>
        <_>
          <internalNodes>
            0 -1 603 2.4312894791364670e-02</internalNodes>
          <leafValues>
            -2.0652326941490173e-01 1.1525761336088181e-01</leafValues></_>
        <_>
          <internalNodes>
            0 -1 329 2.9302243143320084e-02</internalNodes>
          <leafValues>
            1.1515005677938461e-01 -1.8426387012004852e-01</leafValues></_>
        <_>
          <internalNodes>
            0 -1 214 2.1603487432003021e-02</internalNodes>
          <leafValues>
            1.0418324917554855e-01 -1.7355944216251373e-01</leafValues></_>
        <_>
          <internalNodes>
            0 -1 321 1.6159638762474060e-01</internalNodes>
          <leafValues>
            -2.8930693864822388e-02 6.1905431747436523e-01</leafValues></_>
        <_>
          <internalNodes>
            0 -1 37 2.0714884623885155e-02</internalNodes>
          <leafValues>
            8.0532617866992950e-02 -2.9125615954399109e-01</leafValues></_>
        <_>
          <internalNodes>
            0 -1 419 3.7902083713561296e-03</internalNodes>
          <leafValues>
            -3.8254871964454651e-01 4.2990442365407944e-02</leafValues></_>
        <_>
          <internalNodes>
            0 -1 406 7.1332246065139771e-02</internalNodes>
          <leafValues>
            2.1620316430926323e-02 -6.6217267513275146e-01</leafValues></_>
        <_>
          <internalNodes>
            0 -1 11 1.1347756534814835e-01</internalNodes>
          <leafValues>
            -4.8503238707780838e-02 3.4481573104858398e-01</leafValues></_>
        <_>
          <internalNodes>
            0 -1 236 7.9598188400268555e-02</internalNodes>
          <leafValues>
            -2.9315292835235596e-02 5.3537982702255249e-01</leafValues></_>
        <_>
          <internalNodes>
            0 -1 257 2.9123632237315178e-02</internalNodes>
          <leafValues>
            6.7024022340774536e-02 -3.5269030928611755e-01</leafValues></_>
        <_>
          <internalNodes>
            0 -1 601 3.8970862515270710e-03</internalNodes>
          <leafValues>
            -3.4422004222869873e-01 3.7854488939046860e-02</leafValues></_>
        <_>
          <internalNodes>
            0 -1 399 3.2112896442413330e-02</internalNodes>
          <leafValues>
            6.3767410814762115e-02 -2.3677079379558563e-01</leafValues></_>
        <_>
          <internalNodes>
            0 -1 385 2.7553446590900421e-02</internalNodes>
          <leafValues>
            6.4988426864147186e-02 -2.3856706917285919e-01</leafValues></_>
        <_>
          <internalNodes>
            0 -1 119 1.0332764685153961e-01</internalNodes>
          <leafValues>
            -3.2543368637561798e-02 5.0394600629806519e-01</leafValues></_>
        <_>
          <internalNodes>
            0 -1 529 1.8447086215019226e-02</internalNodes>
          <leafValues>
            1.0361766070127487e-01 -1.8966458737850189e-01</leafValues></_>
        <_>
          <internalNodes>
            0 -1 589 1.1394556611776352e-01</internalNodes>
          <leafValues>
            1.8210684880614281e-02 -7.2602981328964233e-01</leafValues></_>
        <_>
          <internalNodes>
            0 -1 511 8.8420063257217407e-02</internalNodes>
          <leafValues>
            -5.8465052396059036e-02 2.8750976920127869e-01</leafValues></_>
        <_>
          <internalNodes>
            0 -1 188 6.4593009650707245e-02</internalNodes>
          <leafValues>
            4.0423501282930374e-02 -4.3453505635261536e-01</leafValues></_>
        <_>
          <internalNodes>
            0 -1 584 5.3815018385648727e-02</internalNodes>
          <leafValues>
            2.4226512759923935e-02 -5.2450668811798096e-01</leafValues></_>
        <_>
          <internalNodes>
            0 -1 230 8.8585208868607879e-04</internalNodes>
          <leafValues>
            3.5619243979454041e-01 -4.4893749058246613e-02</leafValues></_>
        <_>
          <internalNodes>
            0 -1 141 1.7984757199883461e-02</internalNodes>
          <leafValues>
            -1.6260816156864166e-01 1.0769613832235336e-01</leafValues></_>
        <_>
          <internalNodes>
            0 -1 465 3.3716090023517609e-02</internalNodes>
          <leafValues>
            6.1618532985448837e-02 -2.6481139659881592e-01</leafValues></_>
        <_>
          <internalNodes>
            0 -1 236 1.1025196313858032e-01</internalNodes>
          <leafValues>
            -2.5005118921399117e-02 7.0280665159225464e-01</leafValues></_>
        <_>
          <internalNodes>
            0 -1 25 2.6266216300427914e-03</internalNodes>
          <leafValues>
            -3.4660196304321289e-01 4.3594267219305038e-02</leafValues></_>
        <_>
          <internalNodes>
            0 -1 157 3.9915733039379120e-02</internalNodes>
          <leafValues>
            4.7768238931894302e-02 -2.7326202392578125e-01</leafValues></_>
        <_>
          <internalNodes>
            0 -1 19 4.7217592597007751e-02</internalNodes>
          <leafValues>
            6.4049616456031799e-02 -2.1779744327068329e-01</leafValues></_>
        <_>
          <internalNodes>
            0 -1 494 2.7282997965812683e-02</internalNodes>
          <leafValues>
            -1.3219760358333588e-01 1.0927701741456985e-01</leafValues></_>
        <_>
          <internalNodes>
            0 -1 99 1.6295349225401878e-02</internalNodes>
          <leafValues>
            1.2015908211469650e-01 -1.1162186414003372e-01</leafValues></_>
        <_>
          <internalNodes>
            0 -1 597 1.4385512471199036e-01</internalNodes>
          <leafValues>
            1.7457690089941025e-02 -7.5576102733612061e-01</leafValues></_>
        <_>
          <internalNodes>
            0 -1 312 1.9097062759101391e-03</internalNodes>
          <leafValues>
            2.4988918006420135e-01 -5.3503111004829407e-02</leafValues></_>
        <_>
          <internalNodes>
            0 -1 555 2.6666158810257912e-03</internalNodes>
          <leafValues>
            -3.6317229270935059e-01 3.9604000747203827e-02</leafValues></_>
        <_>
          <internalNodes>
            0 -1 267 1.0243444144725800e-01</internalNodes>
          <leafValues>
            -4.7885380685329437e-02 2.7830588817596436e-01</leafValues></_>
        <_>
          <internalNodes>
            0 -1 543 4.4069979339838028e-03</internalNodes>
          <leafValues>
            -3.0210673809051514e-01 4.8491060733795166e-02</leafValues></_>
        <_>
          <internalNodes>
            0 -1 402 1.7777791945263743e-03</internalNodes>
          <leafValues>
            2.5412040948867798e-01 -6.8839155137538910e-02</leafValues></_>
        <_>
          <internalNodes>
            0 -1 402 5.8272160589694977e-02</internalNodes>
          <leafValues>
            -4.2836617678403854e-02 3.5205009579658508e-01</leafValues></_>
        <_>
          <internalNodes>
            0 -1 145 2.3519780486822128e-02</internalNodes>
          <leafValues>
            7.3057197034358978e-02 -1.8068204820156097e-01</leafValues></_>
        <_>
          <internalNodes>
            0 -1 380 3.6635082215070724e-02</internalNodes>
          <leafValues>
            -8.2194328308105469e-02 1.8506355583667755e-01</leafValues></_>
        <_>
          <internalNodes>
            0 -1 123 1.9575200974941254e-02</internalNodes>
          <leafValues>
            9.6290007233619690e-02 -1.6285717487335205e-01</leafValues></_>
        <_>
          <internalNodes>
            0 -1 597 2.4460053071379662e-02</internalNodes>
          <leafValues>
            -1.5754981338977814e-01 9.4623193144798279e-02</leafValues></_>
        <_>
          <internalNodes>
            0 -1 315 1.2427618727087975e-02</internalNodes>
          <leafValues>
            -1.7048889398574829e-01 9.4549335539340973e-02</leafValues></_>
        <_>
          <internalNodes>
            0 -1 75 7.8640677034854889e-02</internalNodes>
          <leafValues>
            -5.2959535270929337e-02 2.9817810654640198e-01</leafValues></_>
        <_>
          <internalNodes>
            0 -1 453 1.2777134776115417e-01</internalNodes>
          <leafValues>
            1.4269956387579441e-02 -8.8416790962219238e-01</leafValues></_>
        <_>
          <internalNodes>
            0 -1 240 2.9347683303058147e-03</internalNodes>
          <leafValues>
            1.8378995358943939e-01 -7.4049077928066254e-02</leafValues></_>
        <_>
          <internalNodes>
            0 -1 523 2.1427478641271591e-02</internalNodes>
          <leafValues>
            8.8101260364055634e-02 -1.6067101061344147e-01</leafValues></_>
        <_>
          <internalNodes>
            0 -1 600 1.2388940900564194e-02</internalNodes>
          <leafValues>
            -2.4189075827598572e-01 6.8946331739425659e-02</leafValues></_>
        <_>
          <internalNodes>
            0 -1 293 1.8637275323271751e-02</internalNodes>
          <leafValues>
            -1.0790354758501053e-01 1.3696803152561188e-01</leafValues></_>
        <_>
          <internalNodes>
            0 -1 111 2.2015914320945740e-02</internalNodes>
          <leafValues>
            8.2598030567169189e-02 -1.6947813332080841e-01</leafValues></_>
        <_>
          <internalNodes>
            0 -1 375 8.7309584021568298e-02</internalNodes>
          <leafValues>
            2.5910748168826103e-02 -5.2164393663406372e-01</leafValues></_>
        <_>
          <internalNodes>
            0 -1 412 5.4015789646655321e-04</internalNodes>
          <leafValues>
            3.1972810626029968e-01 -4.2388025671243668e-02</leafValues></_>
        <_>
          <internalNodes>
            0 -1 29 5.2147239446640015e-02</internalNodes>
          <leafValues>
            4.7556996345520020e-02 -3.1058007478713989e-01</leafValues></_>
        <_>
          <internalNodes>
            0 -1 531 1.1416922509670258e-01</internalNodes>
          <leafValues>
            1.2810063548386097e-02 -8.6796629428863525e-01</leafValues></_>
        <_>
          <internalNodes>
            0 -1 94 5.3360387682914734e-02</internalNodes>
          <leafValues>
            5.6413210928440094e-02 -1.9617730379104614e-01</leafValues></_>
        <_>
          <internalNodes>
            0 -1 435 2.2149048745632172e-03</internalNodes>
          <leafValues>
            -3.0841276049613953e-01 4.0433600544929504e-02</leafValues></_>
        <_>
          <internalNodes>
            0 -1 421 2.1622432395815849e-03</internalNodes>
          <leafValues>
            2.5413841009140015e-01 -5.3931210190057755e-02</leafValues></_>
        <_>
          <internalNodes>
            0 -1 72 1.1614744365215302e-01</internalNodes>
          <leafValues>
            -2.7927868068218231e-02 4.4607922434806824e-01</leafValues></_>
        <_>
          <internalNodes>
            0 -1 591 2.2759024053812027e-02</internalNodes>
          <leafValues>
            8.1137701869010925e-02 -2.2895182669162750e-01</leafValues></_>
        <_>
          <internalNodes>
            0 -1 137 4.3881319463253021e-02</internalNodes>
          <leafValues>
            -4.6626847237348557e-02 3.1188368797302246e-01</leafValues></_>
        <_>
          <internalNodes>
            0 -1 57 6.6688634455204010e-02</internalNodes>
          <leafValues>
            2.9778240248560905e-02 -5.1277965307235718e-01</leafValues></_>
        <_>
          <internalNodes>
            0 -1 434 2.3656613193452358e-03</internalNodes>
          <leafValues>
            -4.4243153929710388e-01 2.6387745514512062e-02</leafValues></_>
        <_>
          <internalNodes>
            0 -1 54 2.6679961010813713e-03</internalNodes>
          <leafValues>
            1.9489541649818420e-01 -6.7196838557720184e-02</leafValues></_>
        <_>
          <internalNodes>
            0 -1 560 4.9027008935809135e-04</internalNodes>
          <leafValues>
            -7.2584986686706543e-01 1.9928151741623878e-02</leafValues></_>
        <_>
          <internalNodes>
            0 -1 448 2.7382042258977890e-02</internalNodes>
          <leafValues>
            4.9970339983701706e-02 -2.4283429980278015e-01</leafValues></_>
        <_>
          <internalNodes>
            0 -1 363 8.2791093736886978e-03</internalNodes>
          <leafValues>
            1.7147541046142578e-01 -7.3185868561267853e-02</leafValues></_>
        <_>
          <internalNodes>
            0 -1 562 3.9250692352652550e-03</internalNodes>
          <leafValues>
            -5.2133631706237793e-01 2.4522772058844566e-02</leafValues></_></weakClassifiers></_>
    <!-- stage 6 -->
    <_>
      <maxWeakCount>100</maxWeakCount>
      <stageThreshold>-1.5064209699630737e+00</stageThreshold>
      <weakClassifiers>
        <_>
          <internalNodes>
            0 -1 305 3.4545745700597763e-02</internalNodes>
          <leafValues>
            -6.6074538230895996e-01 -3.6053132265806198e-02</leafValues></_>
        <_>
          <internalNodes>
            0 -1 141 7.4897333979606628e-02</internalNodes>
          <leafValues>
            -2.2766087949275970e-01 2.9783466458320618e-01</leafValues></_>
        <_>
          <internalNodes>
            0 -1 4 3.5357460379600525e-02</internalNodes>
          <leafValues>
            -1.9631263613700867e-01 2.5189292430877686e-01</leafValues></_>
        <_>
          <internalNodes>
            0 -1 585 1.3057707808911800e-02</internalNodes>
          <leafValues>
            1.3971541821956635e-01 -2.2518794238567352e-01</leafValues></_>
        <_>
          <internalNodes>
            0 -1 118 3.1499676406383514e-03</internalNodes>
          <leafValues>
            2.7149185538291931e-01 -9.9650077521800995e-02</leafValues></_>
        <_>
          <internalNodes>
            0 -1 271 1.5739936381578445e-02</internalNodes>
          <leafValues>
            -2.0498956739902496e-01 1.2525275349617004e-01</leafValues></_>
        <_>
          <internalNodes>
            0 -1 406 3.1265739351511002e-02</internalNodes>
          <leafValues>
            9.8503246903419495e-02 -3.6850658059120178e-01</leafValues></_>
        <_>
          <internalNodes>
            0 -1 23 4.8693604767322540e-03</internalNodes>
          <leafValues>
            2.1462826430797577e-01 -1.2974491715431213e-01</leafValues></_>
        <_>
          <internalNodes>
            0 -1 193 8.0271445214748383e-02</internalNodes>
          <leafValues>
            -4.6154983341693878e-02 5.1219433546066284e-01</leafValues></_>
        <_>
          <internalNodes>
            0 -1 550 2.5853939354419708e-02</internalNodes>
          <leafValues>
            -2.3245570063591003e-01 1.4406885206699371e-01</leafValues></_>
        <_>
          <internalNodes>
            0 -1 544 6.3738085329532623e-02</internalNodes>
          <leafValues>
            -1.2183124572038651e-01 2.2615547478199005e-01</leafValues></_>
        <_>
          <internalNodes>
            0 -1 239 2.0543863065540791e-03</internalNodes>
          <leafValues>
            3.0208370089530945e-01 -8.5260443389415741e-02</leafValues></_>
        <_>
          <internalNodes>
            0 -1 587 1.1121135205030441e-02</internalNodes>
          <leafValues>
            -4.1272479295730591e-01 4.4990651309490204e-02</leafValues></_>
        <_>
          <internalNodes>
            0 -1 275 2.8521317988634109e-02</internalNodes>
          <leafValues>
            8.2119278609752655e-02 -2.4023358523845673e-01</leafValues></_>
        <_>
          <internalNodes>
            0 -1 533 8.5514470934867859e-02</internalNodes>
          <leafValues>
            4.2196329683065414e-02 -4.6145665645599365e-01</leafValues></_>
        <_>
          <internalNodes>
            0 -1 408 4.7992490231990814e-02</internalNodes>
          <leafValues>
            -1.1606169492006302e-01 1.7338934540748596e-01</leafValues></_>
        <_>
          <internalNodes>
            0 -1 431 3.2789837568998337e-03</internalNodes>
          <leafValues>
            -4.9749693274497986e-01 4.2778916656970978e-02</leafValues></_>
        <_>
          <internalNodes>
            0 -1 83 3.3629551529884338e-02</internalNodes>
          <leafValues>
            3.1608257442712784e-02 -4.5084270834922791e-01</leafValues></_>
        <_>
          <internalNodes>
            0 -1 492 3.5405717790126801e-03</internalNodes>
          <leafValues>
            -5.2115994691848755e-01 3.0033435672521591e-02</leafValues></_>
        <_>
          <internalNodes>
            0 -1 314 6.2357946299016476e-03</internalNodes>
          <leafValues>
            1.7323507368564606e-01 -1.0837562382221222e-01</leafValues></_>
        <_>
          <internalNodes>
            0 -1 13 4.1055113077163696e-02</internalNodes>
          <leafValues>
            7.2050064802169800e-02 -2.7660149335861206e-01</leafValues></_>
        <_>
          <internalNodes>
            0 -1 138 1.6708394885063171e-01</internalNodes>
          <leafValues>
            -3.1725469976663589e-02 6.4437872171401978e-01</leafValues></_>
        <_>
          <internalNodes>
            0 -1 490 1.6620799433439970e-03</internalNodes>
          <leafValues>
            -4.9730563163757324e-01 4.1206803172826767e-02</leafValues></_>
        <_>
          <internalNodes>
            0 -1 106 2.7403549756854773e-03</internalNodes>
          <leafValues>
            1.8506944179534912e-01 -8.5409894585609436e-02</leafValues></_>
        <_>
          <internalNodes>
            0 -1 330 8.1390947103500366e-02</internalNodes>
          <leafValues>
            -7.2161346673965454e-02 2.9235607385635376e-01</leafValues></_>
        <_>
          <internalNodes>
            0 -1 254 2.5063402950763702e-02</internalNodes>
          <leafValues>
            8.9919164776802063e-02 -2.0421795547008514e-01</leafValues></_>
        <_>
          <internalNodes>
            0 -1 252 2.7938127517700195e-02</internalNodes>
          <leafValues>
            6.8369656801223755e-02 -2.6973983645439148e-01</leafValues></_>
        <_>
          <internalNodes>
            0 -1 581 9.2455139383673668e-04</internalNodes>
          <leafValues>
            -8.1582033634185791e-01 1.5745086595416069e-02</leafValues></_>
        <_>
          <internalNodes>
            0 -1 129 2.3175373673439026e-02</internalNodes>
          <leafValues>
            -1.2127153575420380e-01 1.1660633981227875e-01</leafValues></_>
        <_>
          <internalNodes>
            0 -1 205 9.4443059060722589e-04</internalNodes>
          <leafValues>
            3.3878892660140991e-01 -5.0865747034549713e-02</leafValues></_>
        <_>
          <internalNodes>
            0 -1 302 1.1415106058120728e-01</internalNodes>
          <leafValues>
            -2.1276328712701797e-02 6.4100593328475952e-01</leafValues></_>
        <_>
          <internalNodes>
            0 -1 170 2.4851730093359947e-02</internalNodes>
          <leafValues>
            5.9186588972806931e-02 -3.2275989651679993e-01</leafValues></_>
        <_>
          <internalNodes>
            0 -1 308 9.6858002245426178e-02</internalNodes>
          <leafValues>
            -4.1952244937419891e-02 4.3790140748023987e-01</leafValues></_>
        <_>
          <internalNodes>
            0 -1 565 5.3391838446259499e-03</internalNodes>
          <leafValues>
            -3.5260114073753357e-01 5.5889807641506195e-02</leafValues></_>
        <_>
          <internalNodes>
            0 -1 172 2.8442913293838501e-01</internalNodes>
          <leafValues>
            -2.2993367165327072e-02 7.4534195661544800e-01</leafValues></_>
        <_>
          <internalNodes>
            0 -1 474 1.1502744257450104e-01</internalNodes>
          <leafValues>
            3.8935065269470215e-02 -5.0262224674224854e-01</leafValues></_>
        <_>
          <internalNodes>
            0 -1 404 8.1701669842004776e-03</internalNodes>
          <leafValues>
            1.3990011811256409e-01 -1.0405793040990829e-01</leafValues></_>
        <_>
          <internalNodes>
            0 -1 173 1.0644369758665562e-02</internalNodes>
          <leafValues>
            -2.1161957085132599e-01 6.3855223357677460e-02</leafValues></_>
        <_>
          <internalNodes>
            0 -1 368 6.8519599735736847e-02</internalNodes>
          <leafValues>
            -3.4050572663545609e-02 4.7535672783851624e-01</leafValues></_>
        <_>
          <internalNodes>
            0 -1 301 2.5349026545882225e-03</internalNodes>
          <leafValues>
            1.9924318790435791e-01 -6.9963917136192322e-02</leafValues></_>
        <_>
          <internalNodes>
            0 -1 589 9.4004254788160324e-03</internalNodes>
          <leafValues>
            -3.1313410401344299e-01 6.0043327510356903e-02</leafValues></_>
        <_>
          <internalNodes>
            0 -1 290 3.4285872243344784e-03</internalNodes>
          <leafValues>
            2.1544273197650909e-01 -7.3730833828449249e-02</leafValues></_>
        <_>
          <internalNodes>
            0 -1 298 1.2691388837993145e-02</internalNodes>
          <leafValues>
            -1.5351206064224243e-01 9.9562175571918488e-02</leafValues></_>
        <_>
          <internalNodes>
            0 -1 539 9.4428353011608124e-02</internalNodes>
          <leafValues>
            -5.4831705987453461e-02 2.5546529889106750e-01</leafValues></_>
        <_>
          <internalNodes>
            0 -1 148 1.0555978119373322e-01</internalNodes>
          <leafValues>
            -2.4590939283370972e-02 5.2424204349517822e-01</leafValues></_>
        <_>
          <internalNodes>
            0 -1 466 1.7553418874740601e-02</internalNodes>
          <leafValues>
            -1.1427959799766541e-01 1.2109136581420898e-01</leafValues></_>
        <_>
          <internalNodes>
            0 -1 252 1.1423533409833908e-01</internalNodes>
          <leafValues>
            -3.0410479754209518e-02 4.8847350478172302e-01</leafValues></_>
        <_>
          <internalNodes>
            0 -1 46 8.1077702343463898e-03</internalNodes>
          <leafValues>
            -3.3341377973556519e-01 4.7650478780269623e-02</leafValues></_>
        <_>
          <internalNodes>
            0 -1 62 1.2333291023969650e-01</internalNodes>
          <leafValues>
            -2.9075486585497856e-02 5.3006863594055176e-01</leafValues></_>
        <_>
          <internalNodes>
            0 -1 238 5.5085495114326477e-02</internalNodes>
          <leafValues>
            2.0333323627710342e-02 -7.0843982696533203e-01</leafValues></_>
        <_>
          <internalNodes>
            0 -1 186 5.0581889227032661e-03</internalNodes>
          <leafValues>
            -2.6775437593460083e-01 4.4252905994653702e-02</leafValues></_>
        <_>
          <internalNodes>
            0 -1 416 5.5646531283855438e-02</internalNodes>
          <leafValues>
            -6.8861484527587891e-02 1.9098500907421112e-01</leafValues></_>
        <_>
          <internalNodes>
            0 -1 436 5.2820615470409393e-02</internalNodes>
          <leafValues>
            5.7861879467964172e-02 -2.2396737337112427e-01</leafValues></_>
        <_>
          <internalNodes>
            0 -1 6 2.2984603419899940e-02</internalNodes>
          <leafValues>
            6.4197167754173279e-02 -2.1076324582099915e-01</leafValues></_>
        <_>
          <internalNodes>
            0 -1 180 1.6244629025459290e-01</internalNodes>
          <leafValues>
            -1.7384234815835953e-02 7.9301780462265015e-01</leafValues></_>
        <_>
          <internalNodes>
            0 -1 230 1.7602603137493134e-01</internalNodes>
          <leafValues>
            1.8554745241999626e-02 -8.2432889938354492e-01</leafValues></_>
        <_>
          <internalNodes>
            0 -1 61 2.8374325484037399e-03</internalNodes>
          <leafValues>
            1.7738714814186096e-01 -7.4013903737068176e-02</leafValues></_>
        <_>
          <internalNodes>
            0 -1 37 1.7486397176980972e-02</internalNodes>
          <leafValues>
            7.1061901748180389e-02 -2.0535457134246826e-01</leafValues></_>
        <_>
          <internalNodes>
            0 -1 465 4.4717960059642792e-02</internalNodes>
          <leafValues>
            3.5656087100505829e-02 -3.5821217298507690e-01</leafValues></_>
        <_>
          <internalNodes>
            0 -1 395 1.4946919679641724e-01</internalNodes>
          <leafValues>
            -1.8528731539845467e-02 8.1767737865447998e-01</leafValues></_>
        <_>
          <internalNodes>
            0 -1 332 1.9036337733268738e-02</internalNodes>
          <leafValues>
            -1.3864131271839142e-01 9.1649934649467468e-02</leafValues></_>
        <_>
          <internalNodes>
            0 -1 543 3.8656339049339294e-02</internalNodes>
          <leafValues>
            -7.7809758484363556e-02 1.6735991835594177e-01</leafValues></_>
        <_>
          <internalNodes>
            0 -1 108 1.2337425351142883e-01</internalNodes>
          <leafValues>
            -2.7226297184824944e-02 5.2380257844924927e-01</leafValues></_>
        <_>
          <internalNodes>
            0 -1 444 4.0107429027557373e-02</internalNodes>
          <leafValues>
            6.6106691956520081e-02 -2.5121319293975830e-01</leafValues></_>
        <_>
          <internalNodes>
            0 -1 591 1.4837288763374090e-03</internalNodes>
          <leafValues>
            -8.2975679636001587e-01 1.2701842002570629e-02</leafValues></_>
        <_>
          <internalNodes>
            0 -1 380 4.4697105884552002e-02</internalNodes>
          <leafValues>
            -6.8762548267841339e-02 1.8401314318180084e-01</leafValues></_>
        <_>
          <internalNodes>
            0 -1 463 2.2250425070524216e-02</internalNodes>
          <leafValues>
            9.7244672477245331e-02 -1.4214938879013062e-01</leafValues></_>
        <_>
          <internalNodes>
            0 -1 417 2.1139953285455704e-02</internalNodes>
          <leafValues>
            -1.0585664212703705e-01 1.0646101087331772e-01</leafValues></_>
        <_>
          <internalNodes>
            0 -1 516 8.2108482718467712e-02</internalNodes>
          <leafValues>
            -2.2687340155243874e-02 6.2721478939056396e-01</leafValues></_>
        <_>
          <internalNodes>
            0 -1 592 1.1793137528002262e-02</internalNodes>
          <leafValues>
            -1.9920831918716431e-01 6.6826581954956055e-02</leafValues></_>
        <_>
          <internalNodes>
            0 -1 357 1.2948364019393921e-03</internalNodes>
          <leafValues>
            2.6165276765823364e-01 -4.5487556606531143e-02</leafValues></_>
        <_>
          <internalNodes>
            0 -1 116 2.1230712532997131e-02</internalNodes>
          <leafValues>
            6.6483877599239349e-02 -1.9656832516193390e-01</leafValues></_>
        <_>
          <internalNodes>
            0 -1 425 5.9141624718904495e-02</internalNodes>
          <leafValues>
            2.2902175784111023e-02 -5.1458340883255005e-01</leafValues></_>
        <_>
          <internalNodes>
            0 -1 462 8.9485615491867065e-02</internalNodes>
          <leafValues>
            1.1546983383595943e-02 -9.1460573673248291e-01</leafValues></_>
        <_>
          <internalNodes>
            0 -1 352 1.2905742228031158e-01</internalNodes>
          <leafValues>
            1.1689321137964725e-02 -7.0694893598556519e-01</leafValues></_>
        <_>
          <internalNodes>
            0 -1 548 7.3722541332244873e-02</internalNodes>
          <leafValues>
            2.5991961359977722e-02 -3.8082569837570190e-01</leafValues></_>
        <_>
          <internalNodes>
            0 -1 98 1.0830515064299107e-02</internalNodes>
          <leafValues>
            -1.8450869619846344e-01 5.4542634636163712e-02</leafValues></_>
        <_>
          <internalNodes>
            0 -1 458 3.3062778413295746e-02</internalNodes>
          <leafValues>
            7.0209600031375885e-02 -1.8983048200607300e-01</leafValues></_>
        <_>
          <internalNodes>
            0 -1 329 1.0897714644670486e-02</internalNodes>
          <leafValues>
            1.4506286382675171e-01 -8.8261924684047699e-02</leafValues></_>
        <_>
          <internalNodes>
            0 -1 567 8.3524417132139206e-03</internalNodes>
          <leafValues>
            -2.3469182848930359e-01 4.9126308411359787e-02</leafValues></_>
        <_>
          <internalNodes>
            0 -1 295 6.2342369928956032e-03</internalNodes>
          <leafValues>
            1.2771910429000854e-01 -9.3360416591167450e-02</leafValues></_>
        <_>
          <internalNodes>
            0 -1 316 5.2928472869098186e-03</internalNodes>
          <leafValues>
            -2.5514650344848633e-01 6.1086744070053101e-02</leafValues></_>
        <_>
          <internalNodes>
            0 -1 208 4.5429142192006111e-03</internalNodes>
          <leafValues>
            2.3034867644309998e-01 -5.4782062768936157e-02</leafValues></_>
        <_>
          <internalNodes>
            0 -1 362 3.4582801163196564e-02</internalNodes>
          <leafValues>
            3.1887818127870560e-02 -4.1472959518432617e-01</leafValues></_>
        <_>
          <internalNodes>
            0 -1 432 4.1825748980045319e-02</internalNodes>
          <leafValues>
            -9.0302921831607819e-02 1.3273678719997406e-01</leafValues></_>
        <_>
          <internalNodes>
            0 -1 144 2.6703621260821819e-03</internalNodes>
          <leafValues>
            2.7049955725669861e-01 -4.0539067238569260e-02</leafValues></_>
        <_>
          <internalNodes>
            0 -1 542 6.5574579639360309e-04</internalNodes>
          <leafValues>
            -6.3666224479675293e-01 2.1153084933757782e-02</leafValues></_>
        <_>
          <internalNodes>
            0 -1 441 3.6485381424427032e-02</internalNodes>
          <leafValues>
            -1.0058327019214630e-01 1.1093073338270187e-01</leafValues></_>
        <_>
          <internalNodes>
            0 -1 55 3.0307013541460037e-02</internalNodes>
          <leafValues>
            6.6031612455844879e-02 -2.1017675101757050e-01</leafValues></_>
        <_>
          <internalNodes>
            0 -1 297 2.3001872003078461e-02</internalNodes>
          <leafValues>
            -7.1222133934497833e-02 1.5025682747364044e-01</leafValues></_>
        <_>
          <internalNodes>
            0 -1 97 3.7621175870299339e-03</internalNodes>
          <leafValues>
            1.8896709382534027e-01 -7.4366427958011627e-02</leafValues></_>
        <_>
          <internalNodes>
            0 -1 603 1.8410742282867432e-02</internalNodes>
          <leafValues>
            -1.7273996770381927e-01 6.2770836055278778e-02</leafValues></_>
        <_>
          <internalNodes>
            0 -1 41 1.3327527791261673e-02</internalNodes>
          <leafValues>
            8.9576281607151031e-02 -1.1126795411109924e-01</leafValues></_>
        <_>
          <internalNodes>
            0 -1 348 3.3333398401737213e-02</internalNodes>
          <leafValues>
            -1.2114065140485764e-01 8.7470240890979767e-02</leafValues></_>
        <_>
          <internalNodes>
            0 -1 364 1.9808858633041382e-02</internalNodes>
          <leafValues>
            1.6136682033538818e-01 -8.9024707674980164e-02</leafValues></_>
        <_>
          <internalNodes>
            0 -1 409 3.4191599115729332e-03</internalNodes>
          <leafValues>
            -3.5810694098472595e-01 3.1789448112249374e-02</leafValues></_>
        <_>
          <internalNodes>
            0 -1 66 2.5959685444831848e-02</internalNodes>
          <leafValues>
            4.4072318822145462e-02 -2.4992063641548157e-01</leafValues></_>
        <_>
          <internalNodes>
            0 -1 260 3.3861948177218437e-03</internalNodes>
          <leafValues>
            -2.7013242244720459e-01 3.8401402533054352e-02</leafValues></_>
        <_>
          <internalNodes>
            0 -1 12 1.4795991778373718e-01</internalNodes>
          <leafValues>
            -1.8049975857138634e-02 6.8161481618881226e-01</leafValues></_>
        <_>
          <internalNodes>
            0 -1 478 1.1851952411234379e-02</internalNodes>
          <leafValues>
            -1.2557451426982880e-01 7.7744252979755402e-02</leafValues></_></weakClassifiers></_>
    <!-- stage 7 -->
    <_>
      <maxWeakCount>100</maxWeakCount>
      <stageThreshold>-1.6017698049545288e+00</stageThreshold>
      <weakClassifiers>
        <_>
          <internalNodes>
            0 -1 141 5.4793976247310638e-02</internalNodes>
          <leafValues>
            -5.7913041114807129e-01 -5.0329072400927544e-03</leafValues></_>
        <_>
          <internalNodes>
            0 -1 512 3.5773180425167084e-02</internalNodes>
          <leafValues>
            -3.2334682345390320e-01 1.8588942289352417e-01</leafValues></_>
        <_>
          <internalNodes>
            0 -1 302 1.6953038284555078e-03</internalNodes>
          <leafValues>
            2.7697062492370605e-01 -1.3701751828193665e-01</leafValues></_>
        <_>
          <internalNodes>
            0 -1 382 2.1226648241281509e-02</internalNodes>
          <leafValues>
            -1.9747942686080933e-01 1.6156309843063354e-01</leafValues></_>
        <_>
          <internalNodes>
            0 -1 233 2.1013971418142319e-02</internalNodes>
          <leafValues>
            1.6432325541973114e-01 -2.1728706359863281e-01</leafValues></_>
        <_>
          <internalNodes>
            0 -1 544 4.2842227965593338e-02</internalNodes>
          <leafValues>
            -1.9218023121356964e-01 1.5394368767738342e-01</leafValues></_>
        <_>
          <internalNodes>
            0 -1 177 4.0667511522769928e-02</internalNodes>
          <leafValues>
            7.5073853135108948e-02 -4.2818930745124817e-01</leafValues></_>
        <_>
          <internalNodes>
            0 -1 290 1.8112866207957268e-02</internalNodes>
          <leafValues>
            1.1165109276771545e-01 -1.8096071481704712e-01</leafValues></_>
        <_>
          <internalNodes>
            0 -1 13 2.5695610791444778e-02</internalNodes>
          <leafValues>
            8.4417819976806641e-02 -2.1951098740100861e-01</leafValues></_>
        <_>
          <internalNodes>
            0 -1 292 1.1909505352377892e-02</internalNodes>
          <leafValues>
            -1.9108478724956512e-01 9.2403940856456757e-02</leafValues></_>
        <_>
          <internalNodes>
            0 -1 349 5.5815607309341431e-02</internalNodes>
          <leafValues>
            -8.8066950440406799e-02 2.2081503272056580e-01</leafValues></_>
        <_>
          <internalNodes>
            0 -1 304 3.8528911769390106e-02</internalNodes>
          <leafValues>
            4.3383453041315079e-02 -3.1099152565002441e-01</leafValues></_>
        <_>
          <internalNodes>
            0 -1 427 3.5324256867170334e-02</internalNodes>
          <leafValues>
            5.6791011244058609e-02 -2.8344362974166870e-01</leafValues></_>
        <_>
          <internalNodes>
            0 -1 568 2.8604615479707718e-02</internalNodes>
          <leafValues>
            -1.4793193340301514e-01 1.1499326676130295e-01</leafValues></_>
        <_>
          <internalNodes>
            0 -1 0 3.4883961081504822e-02</internalNodes>
          <leafValues>
            7.0951730012893677e-02 -2.4962966144084930e-01</leafValues></_>
        <_>
          <internalNodes>
            0 -1 270 1.6651237383484840e-03</internalNodes>
          <leafValues>
            2.3199342191219330e-01 -7.1413040161132813e-02</leafValues></_>
        <_>
          <internalNodes>
            0 -1 371 5.9513123705983162e-03</internalNodes>
          <leafValues>
            -2.2679468989372253e-01 7.8985363245010376e-02</leafValues></_>
        <_>
          <internalNodes>
            0 -1 592 5.9581641107797623e-03</internalNodes>
          <leafValues>
            -4.2207095026969910e-01 3.1441424041986465e-02</leafValues></_>
        <_>
          <internalNodes>
            0 -1 168 2.8490528464317322e-02</internalNodes>
          <leafValues>
            4.6380221843719482e-02 -2.7979028224945068e-01</leafValues></_>
        <_>
          <internalNodes>
            0 -1 281 6.9833574816584587e-03</internalNodes>
          <leafValues>
            -2.5111755728721619e-01 5.5825434625148773e-02</leafValues></_>
        <_>
          <internalNodes>
            0 -1 124 1.1005216836929321e-01</internalNodes>
          <leafValues>
            -3.6426510661840439e-02 4.8129004240036011e-01</leafValues></_>
        <_>
          <internalNodes>
            0 -1 252 1.4503024518489838e-02</internalNodes>
          <leafValues>
            1.2275729328393936e-01 -1.6231460869312286e-01</leafValues></_>
        <_>
          <internalNodes>
            0 -1 383 2.1670717746019363e-02</internalNodes>
          <leafValues>
            6.8985052406787872e-02 -1.9799306988716125e-01</leafValues></_>
        <_>
          <internalNodes>
            0 -1 217 2.3923080880194902e-03</internalNodes>
          <leafValues>
            1.9905723631381989e-01 -6.6872976720333099e-02</leafValues></_>
        <_>
          <internalNodes>
            0 -1 585 2.4072658270597458e-02</internalNodes>
          <leafValues>
            5.3340680897235870e-02 -3.1390842795372009e-01</leafValues></_>
        <_>
          <internalNodes>
            0 -1 465 2.7443245053291321e-02</internalNodes>
          <leafValues>
            6.7285791039466858e-02 -2.1522392332553864e-01</leafValues></_>
        <_>
          <internalNodes>
            0 -1 74 2.7943907305598259e-02</internalNodes>
          <leafValues>
            -1.1555262655019760e-01 1.4637939631938934e-01</leafValues></_>
        <_>
          <internalNodes>
            0 -1 19 1.1739634908735752e-02</internalNodes>
          <leafValues>
            1.9311934709548950e-01 -8.7528355419635773e-02</leafValues></_>
        <_>
          <internalNodes>
            0 -1 86 3.6764480173587799e-02</internalNodes>
          <leafValues>
            3.7263859063386917e-02 -4.4465807080268860e-01</leafValues></_>
        <_>
          <internalNodes>
            0 -1 55 1.1545015126466751e-01</internalNodes>
          <leafValues>
            -2.8141194954514503e-02 5.6202059984207153e-01</leafValues></_>
        <_>
          <internalNodes>
            0 -1 157 5.5470366030931473e-02</internalNodes>
          <leafValues>
            4.1963890194892883e-02 -4.1394242644309998e-01</leafValues></_>
        <_>
          <internalNodes>
            0 -1 493 2.6078438386321068e-03</internalNodes>
          <leafValues>
            -6.2901121377944946e-01 1.6579486429691315e-02</leafValues></_>
        <_>
          <internalNodes>
            0 -1 577 9.6900738775730133e-02</internalNodes>
          <leafValues>
            1.0078135877847672e-02 -8.3357477188110352e-01</leafValues></_>
        <_>
          <internalNodes>
            0 -1 462 1.4344097871799022e-04</internalNodes>
          <leafValues>
            -7.0750570297241211e-01 1.4351692982017994e-02</leafValues></_>
        <_>
          <internalNodes>
            0 -1 225 6.8658880889415741e-02</internalNodes>
          <leafValues>
            -3.2161399722099304e-02 3.6440223455429077e-01</leafValues></_>
        <_>
          <internalNodes>
            0 -1 587 2.3131079971790314e-02</internalNodes>
          <leafValues>
            -1.4790171384811401e-01 7.9847924411296844e-02</leafValues></_>
        <_>
          <internalNodes>
            0 -1 210 3.8276046514511108e-02</internalNodes>
          <leafValues>
            6.1152275651693344e-02 -1.9414535164833069e-01</leafValues></_>
        <_>
          <internalNodes>
            0 -1 332 4.2680062353610992e-02</internalNodes>
          <leafValues>
            -9.6738405525684357e-02 1.5492035448551178e-01</leafValues></_>
        <_>
          <internalNodes>
            0 -1 355 4.6467542648315430e-02</internalNodes>
          <leafValues>
            4.3960887938737869e-02 -3.0202478170394897e-01</leafValues></_>
        <_>
          <internalNodes>
            0 -1 455 1.2075917422771454e-01</internalNodes>
          <leafValues>
            2.1255062893033028e-02 -6.3546049594879150e-01</leafValues></_>
        <_>
          <internalNodes>
            0 -1 193 8.0687090754508972e-02</internalNodes>
          <leafValues>
            -3.8863062858581543e-02 3.3397123217582703e-01</leafValues></_>
        <_>
          <internalNodes>
            0 -1 482 4.2140558362007141e-02</internalNodes>
          <leafValues>
            5.6800443679094315e-02 -2.3847451806068420e-01</leafValues></_>
        <_>
          <internalNodes>
            0 -1 428 3.8647949695587158e-02</internalNodes>
          <leafValues>
            -7.8582301735877991e-02 1.6038239002227783e-01</leafValues></_>
        <_>
          <internalNodes>
            0 -1 54 8.0536641180515289e-02</internalNodes>
          <leafValues>
            -3.6366339772939682e-02 3.8917908072471619e-01</leafValues></_>
        <_>
          <internalNodes>
            0 -1 276 1.6814233362674713e-01</internalNodes>
          <leafValues>
            -1.7626168206334114e-02 5.8594232797622681e-01</leafValues></_>
        <_>
          <internalNodes>
            0 -1 430 1.8950194120407104e-02</internalNodes>
          <leafValues>
            -1.7654043436050415e-01 7.1480274200439453e-02</leafValues></_>
        <_>
          <internalNodes>
            0 -1 204 1.7342318594455719e-01</internalNodes>
          <leafValues>
            1.3002865016460419e-02 -7.5660413503646851e-01</leafValues></_>
        <_>
          <internalNodes>
            0 -1 240 1.5455968677997589e-03</internalNodes>
          <leafValues>
            1.9807630777359009e-01 -5.8900017291307449e-02</leafValues></_>
        <_>
          <internalNodes>
            0 -1 446 1.3698970898985863e-02</internalNodes>
          <leafValues>
            -1.3207758963108063e-01 9.3083500862121582e-02</leafValues></_>
        <_>
          <internalNodes>
            0 -1 334 8.8142873719334602e-03</internalNodes>
          <leafValues>
            1.1061760038137436e-01 -1.1668452620506287e-01</leafValues></_>
        <_>
          <internalNodes>
            0 -1 93 6.4863823354244232e-03</internalNodes>
          <leafValues>
            1.2185546010732651e-01 -9.0376704931259155e-02</leafValues></_>
        <_>
          <internalNodes>
            0 -1 33 8.5050232708454132e-02</internalNodes>
          <leafValues>
            -2.6670776307582855e-02 4.4561150670051575e-01</leafValues></_>
        <_>
          <internalNodes>
            0 -1 569 1.0631540790200233e-02</internalNodes>
          <leafValues>
            -2.4834960699081421e-01 5.5063661187887192e-02</leafValues></_>
        <_>
          <internalNodes>
            0 -1 297 2.2455748170614243e-02</internalNodes>
          <leafValues>
            -7.7994309365749359e-02 1.5413837134838104e-01</leafValues></_>
        <_>
          <internalNodes>
