<?xml version="1.0"?>
<opencv_storage>
<!-- Created using Computer Vision System Toolbox(tm) for MATLAB(R) -->
<!-- Version 9.0.0.341360 (R2016a) -->
<!-- Compatible with OpenCV 2.4 -->
<cascade>
  <stageType>BOOST</stageType>
  <featureType>HOG</featureType>
  <height>33</height>
  <width>32</width>
  <stageParams>
    <boostType>GAB</boostType>
    <minHitRate>9.9500000476837158e-01</minHitRate>
    <maxFalseAlarm>4.0000000596046448e-01</maxFalseAlarm>
    <weightTrimRate>9.4999999999999996e-01</weightTrimRate>
    <maxDepth>1</maxDepth>
    <maxWeakCount>100</maxWeakCount></stageParams>
  <featureParams>
    <maxCatCount>0</maxCatCount>
    <featSize>36</featSize></featureParams>
  <stageNum>10</stageNum>
  <stages>
    <!-- stage 0 -->
    <_>
      <maxWeakCount>2</maxWeakCount>
      <stageThreshold>8.9689623564481735e-03</stageThreshold>
      <weakClassifiers>
        <_>
          <internalNodes>
            0 -1 35 1.9069029018282890e-02</internalNodes>
          <leafValues>
            8.6206895112991333e-01 -8.0821919441223145e-01</leafValues></_>
        <_>
          <internalNodes>
            0 -1 22 2.9106248170137405e-02</internalNodes>
          <leafValues>
            -8.4061318635940552e-01 8.1718814373016357e-01</leafValues></_></weakClassifiers></_>
    <!-- stage 1 -->
    <_>
      <maxWeakCount>3</maxWeakCount>
      <stageThreshold>-9.6703088283538818e-01</stageThreshold>
      <weakClassifiers>
        <_>
          <internalNodes>
            0 -1 4 1.3565763831138611e-02</internalNodes>
          <leafValues>
            6.9230771064758301e-01 -8.1294965744018555e-01</leafValues></_>
        <_>
          <internalNodes>
            0 -1 29 2.6007181033492088e-02</internalNodes>
          <leafValues>
            -8.4708404541015625e-01 4.7753340005874634e-01</leafValues></_>
        <_>
          <internalNodes>
            0 -1 14 1.4356438070535660e-02</internalNodes>
          <leafValues>
            7.8966259956359863e-01 -6.3161462545394897e-01</leafValues></_></weakClassifiers></_>
    <!-- stage 2 -->
    <_>
      <maxWeakCount>3</maxWeakCount>
      <stageThreshold>-8.2654809951782227e-01</stageThreshold>
      <weakClassifiers>
        <_>
          <internalNodes>
            0 -1 1 1.9083760678768158e-02</internalNodes>
          <leafValues>
            6.5714287757873535e-01 -8.5074627399444580e-01</leafValues></_>
        <_>
          <internalNodes>
            0 -1 17 6.2607792206108570e-03</internalNodes>
          <leafValues>
            8.6914682388305664e-01 -6.2680256366729736e-01</leafValues></_>
        <_>
          <internalNodes>
            0 -1 30 3.1807929277420044e-02</internalNodes>
          <leafValues>
            -7.6803123950958252e-01 6.5100073814392090e-01</leafValues></_></weakClassifiers></_>
    <!-- stage 3 -->
    <_>
      <maxWeakCount>3</maxWeakCount>
      <stageThreshold>-6.2776339054107666e-01</stageThreshold>
      <weakClassifiers>
        <_>
          <internalNodes>
            0 -1 11 5.1923666149377823e-02</internalNodes>
          <leafValues>
            -7.7464789152145386e-01 6.7741936445236206e-01</leafValues></_>
        <_>
          <internalNodes>
            0 -1 21 4.8984721302986145e-02</internalNodes>
          <leafValues>
            -4.9037477374076843e-01 8.3400774002075195e-01</leafValues></_>
        <_>
          <internalNodes>
            0 -1 28 2.8227508068084717e-02</internalNodes>
          <leafValues>
            -6.8266266584396362e-01 6.3725924491882324e-01</leafValues></_></weakClassifiers></_>
    <!-- stage 4 -->
    <_>
      <maxWeakCount>5</maxWeakCount>
      <stageThreshold>-1.0416699647903442e+00</stageThreshold>
      <weakClassifiers>
        <_>
          <internalNodes>
            0 -1 5 9.6939839422702789e-03</internalNodes>
          <leafValues>
            6.2711864709854126e-01 -7.2413790225982666e-01</leafValues></_>
        <_>
          <internalNodes>
            0 -1 15 5.7645112276077271e-02</internalNodes>
          <leafValues>
            -5.5130344629287720e-01 6.8465524911880493e-01</leafValues></_>
        <_>
          <internalNodes>
            0 -1 6 1.1305727995932102e-02</internalNodes>
          <leafValues>
            5.5598324537277222e-01 -7.4330109357833862e-01</leafValues></_>
        <_>
          <internalNodes>
            0 -1 38 3.5635866224765778e-02</internalNodes>
          <leafValues>
            -6.0714662075042725e-01 5.1751720905303955e-01</leafValues></_>
        <_>
          <internalNodes>
            0 -1 33 2.6967395097017288e-02</internalNodes>
          <leafValues>
            -8.3972907066345215e-01 5.0906604528427124e-01</leafValues></_></weakClassifiers></_>
    <!-- stage 5 -->
    <_>
      <maxWeakCount>4</maxWeakCount>
      <stageThreshold>-6.4690244197845459e-01</stageThreshold>
      <weakClassifiers>
        <_>
          <internalNodes>
            0 -1 24 3.0254695564508438e-02</internalNodes>
          <leafValues>
            -8.4126985073089600e-01 4.8717948794364929e-01</leafValues></_>
        <_>
          <internalNodes>
            0 -1 36 2.5271922349929810e-02</internalNodes>
          <leafValues>
            -6.7368346452713013e-01 4.9680840969085693e-01</leafValues></_>
        <_>
          <internalNodes>
            0 -1 19 2.2268682718276978e-02</internalNodes>
          <leafValues>
            4.2281320691108704e-01 -8.7756150960922241e-01</leafValues></_>
        <_>
          <internalNodes>
            0 -1 34 8.2215378060936928e-03</internalNodes>
          <leafValues>
            5.7512050867080688e-01 -6.0653579235076904e-01</leafValues></_></weakClassifiers></_>
    <!-- stage 6 -->
    <_>
      <maxWeakCount>5</maxWeakCount>
      <stageThreshold>-9.8461782932281494e-01</stageThreshold>
      <weakClassifiers>
        <_>
          <internalNodes>
            0 -1 2 5.8048069477081299e-02</internalNodes>
          <leafValues>
            -6.3190186023712158e-01 8.5365855693817139e-01</leafValues></_>
        <_>
          <internalNodes>
            0 -1 18 1.8783260136842728e-02</internalNodes>
          <leafValues>
            -8.6119294166564941e-01 3.9865332841873169e-01</leafValues></_>
        <_>
          <internalNodes>
            0 -1 27 1.4974337071180344e-02</internalNodes>
          <leafValues>
            6.1088705062866211e-01 -5.6828904151916504e-01</leafValues></_>
        <_>
          <internalNodes>
            0 -1 7 1.9341696053743362e-02</internalNodes>
          <leafValues>
            4.0699952840805054e-01 -7.5189256668090820e-01</leafValues></_>
        <_>
          <internalNodes>
            0 -1 10 2.0282410085201263e-02</internalNodes>
          <leafValues>
            5.6881231069564819e-01 -6.6658776998519897e-01</leafValues></_></weakClassifiers></_>
    <!-- stage 7 -->
    <_>
      <maxWeakCount>6</maxWeakCount>
      <stageThreshold>-8.3165156841278076e-01</stageThreshold>
      <weakClassifiers>
        <_>
          <internalNodes>
            0 -1 25 6.2047768384218216e-02</internalNodes>
          <leafValues>
            -6.3265305757522583e-01 4.3859648704528809e-01</leafValues></_>
        <_>
          <internalNodes>
            0 -1 3 1.5278357081115246e-02</internalNodes>
          <leafValues>
            -7.7879661321640015e-01 3.6445480585098267e-01</leafValues></_>
        <_>
          <internalNodes>
            0 -1 17 3.1755245290696621e-03</internalNodes>
          <leafValues>
            6.2169402837753296e-01 -4.7301247715950012e-01</leafValues></_>
        <_>
          <internalNodes>
            0 -1 31 1.5634138137102127e-02</internalNodes>
          <leafValues>
            -7.5855946540832520e-01 3.0926528573036194e-01</leafValues></_>
        <_>
          <internalNodes>
            0 -1 26 1.5272434800863266e-02</internalNodes>
          <leafValues>
            4.1873139142990112e-01 -6.0754328966140747e-01</leafValues></_>
        <_>
          <internalNodes>
            0 -1 12 8.1317117437720299e-03</internalNodes>
          <leafValues>
            -8.9928007125854492e-01 2.9793211817741394e-01</leafValues></_></weakClassifiers></_>
    <!-- stage 8 -->
    <_>
      <maxWeakCount>4</maxWeakCount>
      <stageThreshold>-6.8478763103485107e-01</stageThreshold>
      <weakClassifiers>
        <_>
          <internalNodes>
            0 -1 37 6.4212836325168610e-02</internalNodes>
          <leafValues>
            -6.5753424167633057e-01 4.8275861144065857e-01</leafValues></_>
        <_>
          <internalNodes>
            0 -1 13 7.9111335799098015e-03</internalNodes>
          <leafValues>
            5.2666586637496948e-01 -5.1374554634094238e-01</leafValues></_>
        <_>
          <internalNodes>
            0 -1 32 2.7611929923295975e-02</internalNodes>
          <leafValues>
            -7.5445741415023804e-01 3.9793336391448975e-01</leafValues></_>
        <_>
          <internalNodes>
            0 -1 39 3.1026866286993027e-02</internalNodes>
          <leafValues>
            2.0053817331790924e-01 -9.4126689434051514e-01</leafValues></_></weakClassifiers></_>
    <!-- stage 9 -->
    <_>
      <maxWeakCount>6</maxWeakCount>
      <stageThreshold>-1.1067184209823608e+00</stageThreshold>
      <weakClassifiers>
        <_>
          <internalNodes>
            0 -1 8 7.8760068863630295e-03</internalNodes>
          <leafValues>
            5.1020407676696777e-01 -6.0000002384185791e-01</leafValues></_>
        <_>
          <internalNodes>
            0 -1 9 1.5762694180011749e-02</internalNodes>
          <leafValues>
            -9.0840423107147217e-01 2.1110968291759491e-01</leafValues></_>
        <_>
          <internalNodes>
            0 -1 23 3.4704068675637245e-03</internalNodes>
          <leafValues>
            6.7401736974716187e-01 -3.5909047722816467e-01</leafValues></_>
        <_>
          <internalNodes>
            0 -1 0 2.8262741863727570e-02</internalNodes>
          <leafValues>
            3.2821956276893616e-01 -8.0044323205947876e-01</leafValues></_>
        <_>
          <internalNodes>
            0 -1 20 2.0274925976991653e-02</internalNodes>
          <leafValues>
            2.4329106509685516e-01 -7.8371852636337280e-01</leafValues></_>
        <_>
          <internalNodes>
            0 -1 16 2.4467110633850098e-02</internalNodes>
          <leafValues>
            1.9231632351875305e-01 -1.</leafValues></_></weakClassifiers></_></stages>
  <features>
    <_>
      <rect>
        0 0 8 8 15</rect></_>
    <_>
      <rect>
        0 0 8 8 22</rect></_>
    <_>
      <rect>
        0 4 8 8 10</rect></_>
    <_>
      <rect>
        0 8 8 8 1</rect></_>
    <_>
      <rect>
        0 8 8 8 4</rect></_>
    <_>
      <rect>
        0 12 8 8 4</rect></_>
    <_>
      <rect>
        0 12 8 8 19</rect></_>
    <_>
      <rect>
        4 8 8 8 7</rect></_>
    <_>
      <rect>
        4 8 8 8 8</rect></_>
    <_>
      <rect>
        4 8 8 8 24</rect></_>
    <_>
      <rect>
        4 12 8 8 13</rect></_>
    <_>
      <rect>
        4 12 8 8 24</rect></_>
    <_>
      <rect>
        8 0 8 8 2</rect></_>
    <_>
      <rect>
        8 0 8 8 10</rect></_>
    <_>
      <rect>
        8 12 8 8 13</rect></_>
    <_>
      <rect>
        8 12 8 8 28</rect></_>
    <_>
      <rect>
        8 16 8 8 32</rect></_>
    <_>
      <rect>
        12 4 8 8 10</rect></_>
    <_>
      <rect>
        12 12 8 8 28</rect></_>
    <_>
      <rect>
        12 12 8 8 31</rect></_>
    <_>
      <rect>
        16 0 8 8 0</rect></_>
    <_>
      <rect>
        16 0 8 8 33</rect></_>
    <_>
      <rect>
        16 4 8 8 5</rect></_>
    <_>
      <rect>
        16 4 8 8 31</rect></_>
    <_>
      <rect>
        16 12 8 8 19</rect></_>
    <_>
      <rect>
        16 16 8 8 19</rect></_>
    <_>
      <rect>
        16 16 8 8 34</rect></_>
    <_>
      <rect>
        0 0 8 16 4</rect></_>
    <_>
      <rect>
        0 0 8 16 12</rect></_>
    <_>
      <rect>
        4 0 8 16 24</rect></_>
    <_>
      <rect>
        8 0 8 16 28</rect></_>
    <_>
      <rect>
        12 0 8 16 5</rect></_>
    <_>
      <rect>
        12 0 8 16 15</rect></_>
    <_>
      <rect>
        16 0 8 16 5</rect></_>
    <_>
      <rect>
        16 0 8 16 11</rect></_>
    <_>
      <rect>
        16 0 8 16 31</rect></_>
    <_>
      <rect>
        0 0 16 8 19</rect></_>
    <_>
      <rect>
        0 12 16 8 24</rect></_>
    <_>
      <rect>
        0 16 16 8 17</rect></_>
    <_>
      <rect>
        0 0 16 16 29</rect></_></features></cascade>
</opencv_storage>
